{"learner":{"attributes":{},"feature_names":[],"feature_types":[],"gradient_booster":{"model":{"gbtree_model_param":{"num_parallel_tree":"1","num_trees":"100"},"iteration_indptr":[0,1,2,3,4,5,6,7,8,9,10,11,12,13,14,15,16,17,18,19,20,21,22,23,24,25,26,27,28,29,30,31,32,33,34,35,36,37,38,39,40,41,42,43,44,45,46,47,48,49,50,51,52,53,54,55,56,57,58,59,60,61,62,63,64,65,66,67,68,69,70,71,72,73,74,75,76,77,78,79,80,81,82,83,84,85,86,87,88,89,90,91,92,93,94,95,96,97,98,99,100],"tree_info":[0,0,0,0,0,0,0,0,0,0,0,0,0,0,0,0,0,0,0,0,0,0,0,0,0,0,0,0,0,0,0,0,0,0,0,0,0,0,0,0,0,0,0,0,0,0,0,0,0,0,0,0,0,0,0,0,0,0,0,0,0,0,0,0,0,0,0,0,0,0,0,0,0,0,0,0,0,0,0,0,0,0,0,0,0,0,0,0,0,0,0,0,0,0,0,0,0,0,0,0],"trees":[{"base_weights":[-3.7243706E-5,1.7883121E0,-1.5809002E0,5.824827E-1,1.9287603E0,-1.699957E0,-4.758206E-1,1.996387E-1,1.2209483E0,2.042597E0,1.5358602E0,-1.1089535E0,-1.7677124E0,-4.6981312E-2,-9.487377E-1,4.7188723E-1,-1.2545075E-1,1.5721624E-1,1.1033777E0,2.0491505E-1,1.452441E0,1.304476E0,1.7603578E-1,-8.878433E-1,-1.472873E-1,-1.8541904E-1,-1.591608E0,-2.0553768E-1,1.8879665E-1,-4.4280875E-1,-1.1603093E-1,7.5309075E-2,1.3299241E-2,-2.0403355E-2,2.49301E-2,-1.0103747E-2,1.1672646E-1,1.6200157E-1,-1.7990887E-2,1.3828698E-1,1.0436811E-1,-9.052534E-2,2.6489643E-2,-1.2725005E-1,-1.6820584E-1,7.980991E-2,-3.005953E-2,3.5320308E-2,-1.2581526E-2,-6.1107703E-2,3.765605E-2],"categories":[],"categories_nodes":[],"categories_segments":[],"categories_sizes":[],"default_left":[0,0,0,0,0,0,0,0,0,0,0,0,0,0,0,0,0,0,0,0,0,0,0,0,0,0,0,0,0,0,0,0,0,0,0,0,0,0,0,0,0,0,0,0,0,0,0,0,0,0,0],"id":0,"left_children":[1,3,5,7,9,11,13,15,17,19,21,23,25,27,29,31,33,-1,35,-1,37,39,-1,41,-1,-1,43,45,47,49,-1,-1,-1,-1,-1,-1,-1,-1,-1,-1,-1,-1,-1,-1,-1,-1,-1,-1,-1,-1,-1],"loss_changes":[8.755564E3,2.4497314E2,2.1546729E2,3.716122E1,5.505664E1,5.7448242E1,3.2660965E1,8.631788E0,6.259155E-1,9.1308594E-1,1.3095886E1,1.1186661E1,1.7292969E1,3.2398646E0,7.6897125E0,4.943425E0,1.3741806E0,0E0,3.671627E0,0E0,4.2523956E0,1.618988E0,0E0,2.228798E0,0E0,0E0,1.0699463E1,5.1699553E0,1.8522174E0,3.5688667E0,0E0,0E0,0E0,0E0,0E0,0E0,0E0,0E0,0E0,0E0,0E0,0E0,0E0,0E0,0E0,0E0,0E0,0E0,0E0,0E0,0E0],"parents":[2147483647,0,0,1,1,2,2,3,3,4,4,5,5,6,6,7,7,8,8,9,9,10,10,11,11,12,12,13,13,14,14,15,15,16,16,18,18,20,20,21,21,23,23,26,26,27,27,28,28,29,29],"right_children":[2,4,6,8,10,12,14,16,18,20,22,24,26,28,30,32,34,-1,36,-1,38,40,-1,42,-1,-1,44,46,48,50,-1,-1,-1,-1,-1,-1,-1,-1,-1,-1,-1,-1,-1,-1,-1,-1,-1,-1,-1,-1,-1],"split_conditions":[5.156452E-1,6.7154485E-1,3.2075128E-1,6.260067E-1,1.13944784E-1,7.557697E-1,6.9077E-1,4.4072032E-1,6.0004234E-2,2.6675642E-1,8.463865E-1,8.663243E-1,7.132887E-2,4.219481E-1,5.885888E-1,6.505936E-1,5.042942E-1,1.5721624E-1,8.581094E-2,2.0491505E-1,9.840016E-2,5.304526E-1,1.7603578E-1,8.6289126E-1,-1.472873E-1,-1.8541904E-1,8.258793E-1,1.3652173E-1,5.6885403E-1,9.2693865E-1,-1.1603093E-1,7.5309075E-2,1.3299241E-2,-2.0403355E-2,2.49301E-2,-1.0103747E-2,1.1672646E-1,1.6200157E-1,-1.7990887E-2,1.3828698E-1,1.0436811E-1,-9.052534E-2,2.6489643E-2,-1.2725005E-1,-1.6820584E-1,7.980991E-2,-3.005953E-2,3.5320308E-2,-1.2581526E-2,-6.1107703E-2,3.765605E-2],"split_indices":[0,1,1,3,2,2,2,0,2,0,1,0,3,1,0,2,0,0,2,0,2,2,0,0,0,0,0,2,2,2,0,0,0,0,0,0,0,0,0,0,0,0,0,0,0,0,0,0,0,0,0],"split_type":[0,0,0,0,0,0,0,0,0,0,0,0,0,0,0,0,0,0,0,0,0,0,0,0,0,0,0,0,0,0,0,0,0,0,0,0,0,0,0,0,0,0,0,0,0,0,0,0,0,0,0],"sum_hessian":[3.0949739E3,1.4521265E3,1.6428475E3,1.5202768E2,1.3000988E3,1.4825819E3,1.6026562E2,9.585982E1,5.6167862E1,1.00478064E3,2.953181E2,1.5427438E2,1.3283075E3,8.462624E1,7.563939E1,5.192407E1,4.393575E1,1.0983937E1,4.518392E1,9.9130035E2,1.3480287E1,1.4878242E2,1.465357E2,9.810653E1,5.6167862E1,8.844566E2,4.4385092E2,5.067589E1,3.395035E1,2.321605E1,5.2423336E1,2.7709478E1,2.4214588E1,3.6696335E1,7.2394133E0,2.2467144E0,4.293721E1,1.2232112E1,1.2481747E0,1.1108755E2,3.7694874E1,9.685835E1,1.2481747E0,1.0135178E2,3.4249915E2,3.744524E0,4.693137E1,2.221751E1,1.1732842E1,1.9471525E1,3.744524E0],"tree_param":{"num_deleted":"0","num_feature":"4","num_nodes":"51","size_leaf_vector":"1"}},{"base_weights":[-4.4598008E-4,1.613065E0,-1.4424818E0,5.262713E-1,1.739966E0,-6.990703E-1,-1.5941803E0,1.8056378E-1,1.1025223E0,1.8434355E0,1.3837595E0,-2.8184593E-1,-9.942777E-1,-1.6375679E0,-1.0413102E0,4.2591655E-1,-1.12880595E-1,1.4281492E-1,9.942725E-1,1.8734722E-1,1.7039165E-1,1.1746966E0,1.5869793E-1,-8.656084E-1,-3.4473784E-2,-3.9618874E-1,-1.0976791E0,-1.6983841E-1,-1.50207E0,-7.1882254E-1,-1.3258299E-1,6.793756E-2,1.2016396E-2,-4.4650625E-2,-2.293662E-3,-9.407405E-3,1.0519834E-1,1.24504805E-1,9.4073795E-2,-9.860169E-2,-4.5766993E-3,-1.8441102E-2,1.8830702E-2,-5.374517E-2,4.3591574E-2,-9.8156326E-2,-1.3778825E-1,-1.4311247E-1,-1.7115727E-1,-7.491404E-2,2.5006665E-2],"categories":[],"categories_nodes":[],"categories_segments":[],"categories_sizes":[],"default_left":[0,0,0,0,0,0,0,0,0,0,0,0,0,0,0,0,0,0,0,0,0,0,0,0,0,0,0,0,0,0,0,0,0,0,0,0,0,0,0,0,0,0,0,0,0,0,0,0,0,0,0],"id":1,"left_children":[1,3,5,7,9,11,13,15,17,19,21,23,25,27,29,31,33,-1,35,-1,-1,37,-1,39,41,43,45,-1,47,49,-1,-1,-1,-1,-1,-1,-1,-1,-1,-1,-1,-1,-1,-1,-1,-1,-1,-1,-1,-1,-1],"loss_changes":[7.151242E3,1.9913159E2,1.8191772E2,3.0299713E1,4.5304443E1,3.3817154E1,3.0609863E1,7.02354E0,5.9664154E-1,1.0114746E0,1.0723145E1,1.6736841E1,9.567001E0,7.7280273E0,8.293396E0,4.0237656E0,1.3373744E0,0E0,3.0025406E0,0E0,0E0,1.2957764E0,0E0,3.362133E0,2.7935467E0,3.220427E0,3.1155548E0,0E0,3.4226685E0,1.6390171E0,0E0,0E0,0E0,0E0,0E0,0E0,0E0,0E0,0E0,0E0,0E0,0E0,0E0,0E0,0E0,0E0,0E0,0E0,0E0,0E0,0E0],"parents":[2147483647,0,0,1,1,2,2,3,3,4,4,5,5,6,6,7,7,8,8,9,9,10,10,11,11,12,12,13,13,14,14,15,15,16,16,18,18,21,21,23,23,24,24,25,25,26,26,28,28,29,29],"right_children":[2,4,6,8,10,12,14,16,18,20,22,24,26,28,30,32,34,-1,36,-1,-1,38,-1,40,42,44,46,-1,48,50,-1,-1,-1,-1,-1,-1,-1,-1,-1,-1,-1,-1,-1,-1,-1,-1,-1,-1,-1,-1,-1],"split_conditions":[5.156452E-1,6.7154485E-1,7.62286E-1,6.260067E-1,1.13944784E-1,6.822633E-1,2.537132E-1,4.4072032E-1,6.0004234E-2,5.167887E-2,8.463865E-1,3.2075128E-1,5.885888E-1,7.132887E-2,8.663243E-1,6.505936E-1,5.029764E-1,1.4281492E-1,8.581094E-2,1.8734722E-1,1.7039165E-1,5.304526E-1,1.5869793E-1,7.520648E-1,4.219481E-1,5.780519E-1,9.1503525E-1,-1.6983841E-1,9.779495E-1,8.6289126E-1,-1.3258299E-1,6.793756E-2,1.2016396E-2,-4.4650625E-2,-2.293662E-3,-9.407405E-3,1.0519834E-1,1.24504805E-1,9.4073795E-2,-9.860169E-2,-4.5766993E-3,-1.8441102E-2,1.8830702E-2,-5.374517E-2,4.3591574E-2,-9.8156326E-2,-1.3778825E-1,-1.4311247E-1,-1.7115727E-1,-7.491404E-2,2.5006665E-2],"split_indices":[0,1,0,3,2,2,3,0,2,0,1,1,0,3,0,2,2,0,2,0,0,2,0,0,1,0,2,0,0,0,0,0,0,0,0,0,0,0,0,0,0,0,0,0,0,0,0,0,0,0,0],"split_type":[0,0,0,0,0,0,0,0,0,0,0,0,0,0,0,0,0,0,0,0,0,0,0,0,0,0,0,0,0,0,0,0,0,0,0,0,0,0,0,0,0,0,0,0,0,0,0,0,0,0,0],"sum_hessian":[3.071502E3,1.4495098E3,1.6219923E3,1.520954E2,1.2974143E3,2.758371E2,1.3461552E3,9.588493E1,5.6210457E1,1.00214105E3,2.952733E2,1.1510747E2,1.6072963E2,1.246381E3,9.977416E1,5.197582E1,4.3909115E1,1.0982087E1,4.522837E1,8.143861E2,1.8775496E2,1.4888641E2,1.4638686E2,3.3515804E1,8.159167E1,2.440414E1,1.3632549E2,8.52303E2,3.94078E2,4.8419613E1,5.1354553E1,2.774999E1,2.4225828E1,8.48219E0,3.5426926E1,2.2457898E0,4.298258E1,1.1114376E2,3.7742653E1,2.9047031E1,4.468774E0,4.8871864E1,3.27198E1,2.1165129E1,3.2390113E0,9.9567764E1,3.675772E1,3.002376E2,9.384041E1,4.717039E1,1.2492199E0],"tree_param":{"num_deleted":"0","num_feature":"4","num_nodes":"51","size_leaf_vector":"1"}},{"base_weights":[-7.2708353E-4,1.4688469E0,-1.3391458E0,4.549784E-1,1.5962327E0,-7.9120797E-1,-1.5104674E0,1.8339998E-1,9.2291015E-1,1.6948208E0,1.2602408E0,-1.0526103E0,-3.3783188E-1,-1.3978286E0,-1.5911424E-1,4.369341E-1,-2.6091225E-2,1.0024801E0,-7.538491E-2,1.7007534E-1,1.1739337E0,1.0660304E0,1.4505504E0,-4.516833E-1,-1.1354756E0,-6.893772E-1,-6.948135E-2,-1.1229848E0,-1.4591419E0,7.048435E-2,9.31385E-3,6.972348E-2,-9.667316E-3,1.310803E-1,9.0120874E-2,1.3317828E-1,-2.646008E-2,1.1306571E-1,8.521392E-2,1.559261E-1,1.302608E-1,-6.366132E-2,5.2133925E-2,-9.73757E-2,-1.4586703E-1,-9.1594696E-2,-4.2756192E-2,5.3355206E-2,-1.2316297E-2,-1.15618944E-1,6.3355975E-2,-1.3676113E-1,-1.5206291E-1],"categories":[],"categories_nodes":[],"categories_segments":[],"categories_sizes":[],"default_left":[0,0,0,0,0,0,0,0,0,0,0,0,0,0,0,0,0,0,0,0,0,0,0,0,0,0,0,0,0,0,0,0,0,0,0,0,0,0,0,0,0,0,0,0,0,0,0,0,0,0,0,0,0],"id":2,"left_children":[1,3,5,7,9,11,13,15,17,19,21,23,25,27,-1,29,31,33,-1,-1,35,37,39,41,43,45,47,49,51,-1,-1,-1,-1,-1,-1,-1,-1,-1,-1,-1,-1,-1,-1,-1,-1,-1,-1,-1,-1,-1,-1,-1,-1],"loss_changes":[5.9260044E3,1.8474512E2,1.4682397E2,2.0378464E1,4.011035E1,4.4404404E1,8.6813965E0,5.5117717E0,8.645035E0,1.041748E0,9.291534E0,1.1392578E1,1.3121014E1,6.9400024E0,0E0,4.255121E0,3.0105848E0,5.947914E-1,0E0,0E0,3.5994606E0,1.0947571E0,3.0621338E-1,5.8442025E0,9.526886E0,3.1863785E0,2.6644015E0,6.401291E0,2.4395752E-1,0E0,0E0,0E0,0E0,0E0,0E0,0E0,0E0,0E0,0E0,0E0,0E0,0E0,0E0,0E0,0E0,0E0,0E0,0E0,0E0,0E0,0E0,0E0,0E0],"parents":[2147483647,0,0,1,1,2,2,3,3,4,4,5,5,6,6,7,7,8,8,9,9,10,10,11,11,12,12,13,13,15,15,16,16,17,17,20,20,21,21,22,22,23,23,24,24,25,25,26,26,27,27,28,28],"right_children":[2,4,6,8,10,12,14,16,18,20,22,24,26,28,-1,30,32,34,-1,-1,36,38,40,42,44,46,48,50,52,-1,-1,-1,-1,-1,-1,-1,-1,-1,-1,-1,-1,-1,-1,-1,-1,-1,-1,-1,-1,-1,-1,-1,-1],"split_conditions":[5.238882E-1,6.7154485E-1,8.258793E-1,6.260067E-1,1.13944784E-1,3.0822846E-1,9.6529555E-1,6.0887563E-1,5.156452E-1,2.6675642E-1,8.463865E-1,6.071229E-1,3.2075128E-1,8.1810695E-1,-1.5911424E-1,4.9573407E-1,3.6133423E-1,6.0004234E-2,-7.538491E-2,1.7007534E-1,9.840016E-2,5.304526E-1,7.654945E-1,9.4860107E-1,9.1503525E-1,7.520648E-1,1.3652173E-1,9.627974E-1,9.286759E-1,7.048435E-2,9.31385E-3,6.972348E-2,-9.667316E-3,1.310803E-1,9.0120874E-2,1.3317828E-1,-2.646008E-2,1.1306571E-1,8.521392E-2,1.559261E-1,1.302608E-1,-6.366132E-2,5.2133925E-2,-9.73757E-2,-1.4586703E-1,-9.1594696E-2,-4.2756192E-2,5.3355206E-2,-1.2316297E-2,-1.15618944E-1,6.3355975E-2,-1.3676113E-1,-1.5206291E-1],"split_indices":[0,1,0,3,2,3,0,2,0,0,1,0,1,2,0,3,0,2,0,0,2,2,3,2,2,0,2,0,2,0,0,0,0,0,0,0,0,0,0,0,0,0,0,0,0,0,0,0,0,0,0,0,0],"split_type":[0,0,0,0,0,0,0,0,0,0,0,0,0,0,0,0,0,0,0,0,0,0,0,0,0,0,0,0,0,0,0,0,0,0,0,0,0,0,0,0,0,0,0,0,0,0,0,0,0,0,0,0,0],"sum_hessian":[3.010857E3,1.4350667E3,1.5757902E3,1.6069104E2,1.2743756E3,3.7667847E2,1.1991117E3,1.0255947E2,5.8131573E1,9.8214594E2,2.9222968E2,2.3808467E2,1.3859381E2,5.0806894E2,6.910428E2,4.5910797E1,5.664867E1,5.5881855E1,2.24972E0,9.688461E2,1.3299776E1,1.4789989E2,1.4432977E2,2.9633999E1,2.0845067E2,5.9317547E1,7.927627E1,9.619213E1,4.118768E2,2.5212946E1,2.0697853E1,4.246991E0,5.2401676E1,1.0863686E1,4.501817E1,1.2051577E1,1.2481997E0,1.1028996E2,3.7609932E1,7.769712E1,6.663265E1,2.5191845E1,4.442153E0,1.4160695E2,6.684371E1,3.0459791E1,2.8857756E1,5.749537E0,7.3526726E1,9.474295E1,1.4491838E0,1.7484418E2,2.3703264E2],"tree_param":{"num_deleted":"0","num_feature":"4","num_nodes":"53","size_leaf_vector":"1"}},{"base_weights":[-7.9040695E-4,1.3605101E0,-1.2461398E0,6.76848E-1,1.532903E0,-7.241475E-1,-1.4129912E0,3.2603002E-1,9.876809E-1,1.2460982E0,1.586522E0,-9.688907E-1,-3.0626133E-1,-1.478952E0,-1.278672E0,7.246354E-1,3.6835946E-2,1.239352E0,8.6065E-1,1.3960553E0,1.0829166E0,1.6096106E-1,1.4647163E-1,-2.6508003E-1,-1.0315689E0,-6.291036E-1,-6.206342E-2,-1.3516666E-1,-1.4999582E-1,-1.2043402E0,-1.4882891E-1,7.6791994E-2,5.248411E-3,-1.5829643E-2,2.3466982E-2,1.2959677E-1,5.8799755E-2,1.7420867E-2,8.860838E-2,1.5500297E-1,1.16736725E-1,1.1096211E-1,3.9071914E-2,-5.150029E-2,3.250221E-2,-8.934044E-2,-1.3161553E-1,-8.392697E-2,-3.883557E-2,4.8820253E-2,-1.1108675E-2,-1.2538464E-1,-9.720831E-2],"categories":[],"categories_nodes":[],"categories_segments":[],"categories_sizes":[],"default_left":[0,0,0,0,0,0,0,0,0,0,0,0,0,0,0,0,0,0,0,0,0,0,0,0,0,0,0,0,0,0,0,0,0,0,0,0,0,0,0,0,0,0,0,0,0,0,0,0,0,0,0,0,0],"id":3,"left_children":[1,3,5,7,9,11,13,15,17,19,21,23,25,27,29,31,33,35,37,39,41,-1,-1,43,45,47,49,-1,-1,51,-1,-1,-1,-1,-1,-1,-1,-1,-1,-1,-1,-1,-1,-1,-1,-1,-1,-1,-1,-1,-1,-1,-1],"loss_changes":[4.961677E3,1.6376099E2,1.3209863E2,3.0578888E1,1.5183594E1,3.7777588E1,8.361572E0,1.5491311E1,3.7210999E0,2.9031677E0,2.758789E-1,1.0062881E1,1.0916392E1,3.0517578E-2,4.260803E0,1.6049023E0,3.089539E0,1.0066605E0,1.6403351E0,1.379425E0,1.2459717E0,0E0,0E0,3.1916542E0,7.2702637E0,2.6964931E0,2.2184317E0,0E0,0E0,2.1390991E0,0E0,0E0,0E0,0E0,0E0,0E0,0E0,0E0,0E0,0E0,0E0,0E0,0E0,0E0,0E0,0E0,0E0,0E0,0E0,0E0,0E0,0E0,0E0],"parents":[2147483647,0,0,1,1,2,2,3,3,4,4,5,5,6,6,7,7,8,8,9,9,10,10,11,11,12,12,13,13,14,14,15,15,16,16,17,17,18,18,19,19,20,20,23,23,24,24,25,25,26,26,29,29],"right_children":[2,4,6,8,10,12,14,16,18,20,22,24,26,28,30,32,34,36,38,40,42,-1,-1,44,46,48,50,-1,-1,52,-1,-1,-1,-1,-1,-1,-1,-1,-1,-1,-1,-1,-1,-1,-1,-1,-1,-1,-1,-1,-1,-1,-1],"split_conditions":[5.238882E-1,7.8707284E-1,8.258793E-1,6.386658E-1,8.7047815E-1,3.0822846E-1,7.132887E-2,4.786836E-1,1.5505728E-1,9.901139E-2,5.167887E-2,5.885888E-1,3.2075128E-1,9.32049E-1,9.779495E-1,5.156452E-1,3.177367E-1,3.381481E-1,2.1901764E-1,7.654945E-1,7.8080803E-1,1.6096106E-1,1.4647163E-1,8.915145E-1,9.1503525E-1,7.520648E-1,1.3652173E-1,-1.3516666E-1,-1.4999582E-1,2.537132E-1,-1.4882891E-1,7.6791994E-2,5.248411E-3,-1.5829643E-2,2.3466982E-2,1.2959677E-1,5.8799755E-2,1.7420867E-2,8.860838E-2,1.5500297E-1,1.16736725E-1,1.1096211E-1,3.9071914E-2,-5.150029E-2,3.250221E-2,-8.934044E-2,-1.3161553E-1,-8.392697E-2,-3.883557E-2,4.8820253E-2,-1.1108675E-2,-1.2538464E-1,-9.720831E-2],"split_indices":[0,1,0,1,3,3,3,2,2,0,0,0,1,0,0,0,3,0,0,3,2,0,0,2,2,0,2,0,0,3,0,0,0,0,0,0,0,0,0,0,0,0,0,0,0,0,0,0,0,0,0,0,0],"split_type":[0,0,0,0,0,0,0,0,0,0,0,0,0,0,0,0,0,0,0,0,0,0,0,0,0,0,0,0,0,0,0,0,0,0,0,0,0,0,0,0,0,0,0,0,0,0,0,0,0,0,0,0,0],"sum_hessian":[2.9247344E3,1.3972728E3,1.5274617E3,2.8237564E2,1.1148971E3,3.7127466E2,1.156187E3,1.3361806E2,1.4875758E2,1.7942178E2,9.3547534E2,2.3331223E2,1.3796243E2,7.6869086E2,3.874961E2,5.5548325E1,7.806973E1,4.6961708E1,1.01795876E2,8.9562386E1,8.98594E1,7.7614105E2,1.5933432E2,1.950628E1,2.1380595E2,5.8735226E1,7.922722E1,1.181448E2,6.505461E2,2.910375E2,9.6458595E1,5.2053738E1,3.4945867E0,3.9403828E1,3.86659E1,4.229571E1,4.6659966E0,3.917397E0,9.787848E1,5.0071575E1,3.9490814E1,8.594081E1,3.918581E0,1.3792206E1,5.714076E0,1.4671585E2,6.70901E1,3.0032026E1,2.8703197E1,5.7481465E0,7.3479065E1,2.3627612E2,5.476137E1],"tree_param":{"num_deleted":"0","num_feature":"4","num_nodes":"53","size_leaf_vector":"1"}},{"base_weights":[-7.8942056E-4,1.2706931E0,-1.1669779E0,6.3981456E-1,1.4470196E0,-6.644138E-1,-1.3320125E0,2.952603E-1,9.1812986E-1,1.4983116E-1,1.1899683E0,-8.950274E-1,-2.778341E-1,-1.3991836E0,-1.1968002E0,6.590351E-1,3.3262983E-2,1.1921434E0,7.7415395E-1,1.3030568E0,1.0513289E0,-3.6324957E-1,-9.7093713E-1,-5.749307E-1,-5.5426866E-2,-1.2728901E-1,-1.4201605E-1,-1.1232193E0,-1.4072426E-1,6.986811E-2,4.8396494E-3,-1.4297359E-2,2.1183616E-2,1.2414074E-1,5.433491E-2,3.1864878E-2,8.015337E-2,1.4529328E-1,1.1180359E-1,1.07960664E-1,3.6128666E-2,-5.3336836E-2,5.130599E-2,-8.242923E-2,-1.2896822E-1,-7.7092156E-2,-3.5285402E-2,4.4720214E-2,-1.0019495E-2,-9.067087E-2,-1.1743867E-1],"categories":[],"categories_nodes":[],"categories_segments":[],"categories_sizes":[],"default_left":[0,0,0,0,0,0,0,0,0,0,0,0,0,0,0,0,0,0,0,0,0,0,0,0,0,0,0,0,0,0,0,0,0,0,0,0,0,0,0,0,0,0,0,0,0,0,0,0,0,0,0],"id":4,"left_children":[1,3,5,7,9,11,13,15,17,-1,19,21,23,25,27,29,31,33,35,37,39,41,43,45,47,-1,-1,49,-1,-1,-1,-1,-1,-1,-1,-1,-1,-1,-1,-1,-1,-1,-1,-1,-1,-1,-1,-1,-1,-1,-1],"loss_changes":[4.1873545E3,1.4935986E2,1.2128418E2,2.8200577E1,1.2128174E1,3.2391525E1,8.387451E0,1.2762653E1,5.5378876E0,0E0,1.4580231E0,8.88623E0,9.103343E0,1.3757324E-1,4.2199707E0,1.3245296E0,2.5174925E0,1.0692291E0,1.1190796E0,1.0144501E0,1.2921143E0,4.773901E0,8.270645E0,2.2994804E0,1.8487953E0,0E0,0E0,2.064972E0,0E0,0E0,0E0,0E0,0E0,0E0,0E0,0E0,0E0,0E0,0E0,0E0,0E0,0E0,0E0,0E0,0E0,0E0,0E0,0E0,0E0,0E0,0E0],"parents":[2147483647,0,0,1,1,2,2,3,3,4,4,5,5,6,6,7,7,8,8,10,10,11,11,12,12,13,13,14,14,15,15,16,16,17,17,18,18,19,19,20,20,21,21,22,22,23,23,24,24,27,27],"right_children":[2,4,6,8,10,12,14,16,18,-1,20,22,24,26,28,30,32,34,36,38,40,42,44,46,48,-1,-1,50,-1,-1,-1,-1,-1,-1,-1,-1,-1,-1,-1,-1,-1,-1,-1,-1,-1,-1,-1,-1,-1,-1,-1],"split_conditions":[5.238882E-1,8.0174404E-1,8.258793E-1,6.386658E-1,1.13944784E-1,3.0822846E-1,7.132887E-2,4.786836E-1,1.5505728E-1,1.4983116E-1,9.901139E-2,6.071229E-1,3.2075128E-1,9.32049E-1,9.779495E-1,5.156452E-1,3.177367E-1,3.381481E-1,6.503258E-1,7.654945E-1,7.8080803E-1,9.4860107E-1,9.171992E-1,7.520648E-1,1.3652173E-1,-1.2728901E-1,-1.4201605E-1,7.557697E-1,-1.4072426E-1,6.986811E-2,4.8396494E-3,-1.4297359E-2,2.1183616E-2,1.2414074E-1,5.433491E-2,3.1864878E-2,8.015337E-2,1.4529328E-1,1.1180359E-1,1.07960664E-1,3.6128666E-2,-5.3336836E-2,5.130599E-2,-8.242923E-2,-1.2896822E-1,-7.7092156E-2,-3.5285402E-2,4.4720214E-2,-1.0019495E-2,-9.067087E-2,-1.1743867E-1],"split_indices":[0,1,0,1,2,3,3,2,2,0,0,0,1,0,0,0,3,0,1,3,2,2,2,0,2,0,0,2,0,0,0,0,0,0,0,0,0,0,0,0,0,0,0,0,0,0,0,0,0,0,0],"split_type":[0,0,0,0,0,0,0,0,0,0,0,0,0,0,0,0,0,0,0,0,0,0,0,0,0,0,0,0,0,0,0,0,0,0,0,0,0,0,0,0,0,0,0,0,0,0,0,0,0,0,0],"sum_hessian":[2.8219734E3,1.3499968E3,1.4719764E3,2.959054E2,1.0540914E3,3.6512445E2,1.106852E3,1.3313954E2,1.6276585E2,8.7472064E2,1.793708E2,2.278723E2,1.3725215E2,7.3324207E2,3.7360995E2,5.5108185E1,7.803136E1,5.3556843E1,1.09209015E2,9.4163E1,8.5207794E1,2.9187494E1,1.986848E2,5.808109E1,7.917107E1,1.1322727E2,6.200148E2,2.8151562E2,9.209434E1,5.1613003E1,3.4951804E0,3.937295E1,3.8658405E1,4.892824E1,4.628602E0,6.90878E0,1.0230023E2,4.8236378E1,4.5926624E1,8.1311134E1,3.8966563E0,2.4770184E1,4.4173117E0,1.3853511E2,6.0149696E1,2.9539753E1,2.8541336E1,5.739714E0,7.343135E1,5.7390846E1,2.2412477E2],"tree_param":{"num_deleted":"0","num_feature":"4","num_nodes":"51","size_leaf_vector":"1"}},{"base_weights":[-7.744363E-4,1.1943705E0,-1.0980246E0,5.8536804E-1,1.3706576E0,-6.106437E-1,-1.2631165E0,2.6761523E-1,8.462371E-1,1.42369E0,1.1102408E0,-3.0333456E-1,-8.6942285E-1,-1.3324941E0,-1.1253371E0,6.6667914E-1,6.489E-2,1.113654E0,7.084347E-1,1.4444856E-1,1.301669E-1,1.2231066E0,9.739222E-1,-5.18659E-1,-1.1724637E-1,-9.7584116E-1,-5.434514E-1,-1.3935754E-1,-1.2832534E-1,-1.0378797E0,-1.3051222E-1,7.484432E-2,-5.1557135E-2,-1.2913863E-2,2.1909127E-2,1.1613645E-1,5.0253313E-2,2.9177902E-2,7.337562E-2,1.372918E-1,1.0412301E-1,1.0006763E-1,3.341691E-2,-3.6470007E-2,-6.989874E-2,-4.607039E-3,-5.82001E-2,-7.930594E-2,-1.2985727E-1,-7.8997724E-2,-1.4073878E-2,-1.05567314E-1,1.4116414E-2],"categories":[],"categories_nodes":[],"categories_segments":[],"categories_sizes":[],"default_left":[0,0,0,0,0,0,0,0,0,0,0,0,0,0,0,0,0,0,0,0,0,0,0,0,0,0,0,0,0,0,0,0,0,0,0,0,0,0,0,0,0,0,0,0,0,0,0,0,0,0,0,0,0],"id":5,"left_children":[1,3,5,7,9,11,13,15,17,19,21,23,25,27,29,31,33,35,37,-1,-1,39,41,43,45,47,49,-1,-1,51,-1,-1,-1,-1,-1,-1,-1,-1,-1,-1,-1,-1,-1,-1,-1,-1,-1,-1,-1,-1,-1,-1,-1],"loss_changes":[3.5548015E3,1.3849597E2,1.1294287E2,2.406215E1,1.2305664E1,2.83275E1,8.58252E0,1.0762378E1,5.12368E0,2.3034668E-1,1.4960327E0,6.586178E0,6.2214966E0,3.0529785E-1,4.3006287E0,4.7249184E0,2.7114766E0,9.562988E-1,9.320259E-1,0E0,0E0,1.0674133E0,1.1036682E0,1.8720264E0,2.9594836E0,7.551758E0,4.868684E0,0E0,0E0,5.3276978E0,0E0,0E0,0E0,0E0,0E0,0E0,0E0,0E0,0E0,0E0,0E0,0E0,0E0,0E0,0E0,0E0,0E0,0E0,0E0,0E0,0E0,0E0,0E0],"parents":[2147483647,0,0,1,1,2,2,3,3,4,4,5,5,6,6,7,7,8,8,9,9,10,10,11,11,12,12,13,13,14,14,15,15,16,16,17,17,18,18,21,21,22,22,23,23,24,24,25,25,26,26,29,29],"right_children":[2,4,6,8,10,12,14,16,18,20,22,24,26,28,30,32,34,36,38,-1,-1,40,42,44,46,48,50,-1,-1,52,-1,-1,-1,-1,-1,-1,-1,-1,-1,-1,-1,-1,-1,-1,-1,-1,-1,-1,-1,-1,-1,-1,-1],"split_conditions":[5.238882E-1,8.0174404E-1,8.258793E-1,6.386658E-1,1.13944784E-1,7.4712E-1,7.132887E-2,3.8775828E-1,1.5505728E-1,5.167887E-2,9.901139E-2,3.2075128E-1,3.3542994E-1,2.5760265E-2,9.6529555E-1,5.156452E-1,3.177367E-1,3.381481E-1,6.503258E-1,1.4444856E-1,1.301669E-1,7.654945E-1,7.8080803E-1,2.5398147E-1,6.9077E-1,9.171992E-1,8.915145E-1,-1.3935754E-1,-1.2832534E-1,9.640829E-1,-1.3051222E-1,7.484432E-2,-5.1557135E-2,-1.2913863E-2,2.1909127E-2,1.1613645E-1,5.0253313E-2,2.9177902E-2,7.337562E-2,1.372918E-1,1.0412301E-1,1.0006763E-1,3.341691E-2,-3.6470007E-2,-6.989874E-2,-4.607039E-3,-5.82001E-2,-7.930594E-2,-1.2985727E-1,-7.8997724E-2,-1.4073878E-2,-1.05567314E-1,1.4116414E-2],"split_indices":[0,1,0,1,2,2,3,2,2,0,0,1,1,3,0,0,3,0,1,0,0,3,2,1,2,2,2,0,0,0,0,0,0,0,0,0,0,0,0,0,0,0,0,0,0,0,0,0,0,0,0,0,0],"split_type":[0,0,0,0,0,0,0,0,0,0,0,0,0,0,0,0,0,0,0,0,0,0,0,0,0,0,0,0,0,0,0,0,0,0,0,0,0,0,0,0,0,0,0,0,0,0,0,0,0,0,0,0,0],"sum_hessian":[2.708748E3,1.2964944E3,1.4122538E3,2.920157E2,1.00447864E3,3.5852417E2,1.0537296E3,1.3256732E2,1.5944838E2,8.308198E2,1.736588E2,1.6488716E2,1.93637E2,6.950642E2,3.586654E2,4.3887115E1,8.868021E1,5.1815205E1,1.0763317E2,7.0058386E2,1.3023598E2,9.064026E1,8.301854E1,7.561043E1,8.927674E1,1.4447673E2,4.916027E1,2.9804752E2,3.9701666E2,2.4584549E2,1.1281992E2,4.139143E1,2.4956875E0,3.934086E1,4.933935E1,4.7227734E1,4.5874724E0,6.883921E0,1.00749245E2,4.6110508E1,4.452975E1,7.91446E1,3.8739383E0,4.2417805E1,3.3192627E1,7.837321E1,1.0903529E1,9.444456E1,5.0032166E1,2.9896872E1,1.92634E1,2.4229356E2,3.5519226E0],"tree_param":{"num_deleted":"0","num_feature":"4","num_nodes":"53","size_leaf_vector":"1"}},{"base_weights":[-7.262621E-4,1.1282276E0,-1.0367184E0,5.3631574E-1,1.3064455E0,-5.621327E-1,-1.2031825E0,2.4256226E-1,7.816472E-1,1.3620057E0,1.0398443E0,-2.7605844E-1,-8.084253E-1,-1.275674E0,-1.0614123E0,6.097587E-1,5.8549505E-2,1.0443184E0,6.4919585E-1,1.3835551E-1,1.2368325E-1,1.3222012E-1,9.793839E-1,-1.19656056E-1,-4.9762717E-1,-9.1197336E-1,-4.979692E-1,-1.1401504E-1,-1.2985814E-1,-9.8637766E-1,-1.2836275E0,6.861882E-2,-4.7973245E-2,-1.1664356E-2,1.9777495E-2,1.091015E-1,4.6508245E-2,3.3620186E-2,6.8580575E-2,7.69571E-2,1.081545E-1,3.371242E-2,-1.7068058E-2,-3.316469E-2,-7.559102E-2,-7.328868E-2,-1.2377393E-1,-7.283492E-2,-1.2777154E-2,-7.631753E-2,-1.0407584E-1,-4.024638E-2,-1.2939237E-1],"categories":[],"categories_nodes":[],"categories_segments":[],"categories_sizes":[],"default_left":[0,0,0,0,0,0,0,0,0,0,0,0,0,0,0,0,0,0,0,0,0,0,0,0,0,0,0,0,0,0,0,0,0,0,0,0,0,0,0,0,0,0,0,0,0,0,0,0,0,0,0,0,0],"id":6,"left_children":[1,3,5,7,9,11,13,15,17,19,21,23,25,27,29,31,33,35,37,-1,-1,-1,39,41,43,45,47,-1,-1,49,51,-1,-1,-1,-1,-1,-1,-1,-1,-1,-1,-1,-1,-1,-1,-1,-1,-1,-1,-1,-1,-1,-1],"loss_changes":[3.0317476E3,1.3015076E2,1.0611218E2,2.0619484E1,1.269519E1,2.4640457E1,8.921631E0,8.941166E0,4.7804565E0,4.066162E-1,1.5820312E0,5.6506042E0,5.6251984E0,5.5773926E-1,4.4735413E0,4.0134716E0,2.208769E0,8.7068176E-1,9.9484634E-1,0E0,0E0,0E0,2.225586E0,2.3395176E0,2.6587582E0,7.2959595E0,4.1287413E0,0E0,0E0,2.3816833E0,2.374878E-1,0E0,0E0,0E0,0E0,0E0,0E0,0E0,0E0,0E0,0E0,0E0,0E0,0E0,0E0,0E0,0E0,0E0,0E0,0E0,0E0,0E0,0E0],"parents":[2147483647,0,0,1,1,2,2,3,3,4,4,5,5,6,6,7,7,8,8,9,9,10,10,11,11,12,12,13,13,14,14,15,15,16,16,17,17,18,18,22,22,23,23,24,24,25,25,26,26,29,29,30,30],"right_children":[2,4,6,8,10,12,14,16,18,20,22,24,26,28,30,32,34,36,38,-1,-1,-1,40,42,44,46,48,-1,-1,50,52,-1,-1,-1,-1,-1,-1,-1,-1,-1,-1,-1,-1,-1,-1,-1,-1,-1,-1,-1,-1,-1,-1],"split_conditions":[5.238882E-1,8.0174404E-1,8.258793E-1,6.386658E-1,1.13944784E-1,7.4712E-1,7.132887E-2,3.8775828E-1,1.5505728E-1,5.167887E-2,1.740457E-2,6.973616E-1,3.3542994E-1,9.32049E-1,9.779495E-1,5.156452E-1,3.177367E-1,3.381481E-1,2.1901764E-1,1.3835551E-1,1.2368325E-1,1.3222012E-1,1.9610526E-1,1.7618941E-1,2.5398147E-1,9.171992E-1,8.915145E-1,-1.1401504E-1,-1.2985814E-1,7.557697E-1,6.314535E-1,6.861882E-2,-4.7973245E-2,-1.1664356E-2,1.9777495E-2,1.091015E-1,4.6508245E-2,3.3620186E-2,6.8580575E-2,7.69571E-2,1.081545E-1,3.371242E-2,-1.7068058E-2,-3.316469E-2,-7.559102E-2,-7.328868E-2,-1.2377393E-1,-7.283492E-2,-1.2777154E-2,-7.631753E-2,-1.0407584E-1,-4.024638E-2,-1.2939237E-1],"split_indices":[0,1,0,1,2,2,3,2,2,0,0,0,1,0,0,0,3,0,0,0,0,0,2,2,1,2,2,0,0,2,2,0,0,0,0,0,0,0,0,0,0,0,0,0,0,0,0,0,0,0,0,0,0],"split_type":[0,0,0,0,0,0,0,0,0,0,0,0,0,0,0,0,0,0,0,0,0,0,0,0,0,0,0,0,0,0,0,0,0,0,0,0,0,0,0,0,0,0,0,0,0,0,0,0,0,0,0,0,0],"sum_hessian":[2.5901516E3,1.2394233E3,1.3507284E3,2.8774637E2,9.5167694E2,3.5188596E2,9.988424E2,1.3185515E2,1.5589122E2,7.841497E2,1.6752725E2,1.637766E2,1.8810934E2,6.556102E2,3.4323218E2,4.324544E1,8.86097E1,4.99494E1,1.0594182E2,6.60404E2,1.2374571E2,2.5865173E1,1.4166208E2,9.690952E1,6.686708E1,1.396077E2,4.850164E1,1.0213491E2,5.5347534E2,2.6065616E2,8.2576004E1,4.0756485E1,2.4889555E0,3.930846E1,4.9301243E1,4.5405388E1,4.5440164E0,1.2160421E1,9.3781395E1,4.9183872E1,9.247822E1,9.174123E0,8.77354E1,4.2097824E1,2.4769255E1,9.218155E1,4.7426155E1,2.9300198E1,1.920144E1,5.400989E1,2.0664627E2,1.416744E0,8.115926E1],"tree_param":{"num_deleted":"0","num_feature":"4","num_nodes":"53","size_leaf_vector":"1"}},{"base_weights":[-6.9126615E-4,1.0695664E0,-9.8136777E-1,4.9177137E-1,1.2512265E0,-5.751373E-1,-1.1745147E0,1.8194793E-1,6.9544256E-1,1.3101233E0,9.759178E-1,-2.8379366E-1,-8.301299E-1,-1.0914829E0,-1.264817E-1,-3.0203673E-1,3.1826556E-1,6.060596E-1,1.08126536E-1,1.3327779E-1,1.1800871E-1,1.0956745E0,8.359816E-1,5.9812844E-2,-3.715261E-1,-6.2633866E-1,-9.889263E-1,-1.0082312E0,-1.1901604E0,-4.737148E-2,3.7635755E-2,5.584651E-2,1.7337522E-2,3.4886904E-2,6.554025E-2,1.2538818E-1,9.1107614E-2,8.63323E-2,2.2834579E-2,-1.6333599E-3,5.7707965E-2,4.8945144E-2,-4.063597E-2,-3.0019436E-2,-6.990578E-2,-8.6209945E-2,-1.1660498E-1,-1.0236754E-1,-2.0521626E-2,-6.15772E-2,-1.2017887E-1],"categories":[],"categories_nodes":[],"categories_segments":[],"categories_sizes":[],"default_left":[0,0,0,0,0,0,0,0,0,0,0,0,0,0,0,0,0,0,0,0,0,0,0,0,0,0,0,0,0,0,0,0,0,0,0,0,0,0,0,0,0,0,0,0,0,0,0,0,0,0,0],"id":7,"left_children":[1,3,5,7,9,11,13,15,17,19,21,23,25,27,-1,29,31,33,-1,-1,-1,35,37,39,41,43,45,47,49,-1,-1,-1,-1,-1,-1,-1,-1,-1,-1,-1,-1,-1,-1,-1,-1,-1,-1,-1,-1,-1,-1],"loss_changes":[2.5943455E3,1.2344177E2,1.00531494E2,1.78172E1,1.3291382E1,3.0789536E1,5.1672363E0,7.626739E0,5.2493134E0,5.991211E-1,1.803421E0,5.94386E0,6.5707245E0,2.597351E0,0E0,3.1594503E0,3.0195847E0,1.564373E0,0E0,0E0,0E0,1.3173065E0,1.1161804E0,1.6170666E0,4.896076E0,2.1626282E0,1.7611923E0,2.9804688E0,6.358032E-1,0E0,0E0,0E0,0E0,0E0,0E0,0E0,0E0,0E0,0E0,0E0,0E0,0E0,0E0,0E0,0E0,0E0,0E0,0E0,0E0,0E0,0E0],"parents":[2147483647,0,0,1,1,2,2,3,3,4,4,5,5,6,6,7,7,8,8,9,9,10,10,11,11,12,12,13,13,15,15,16,16,17,17,21,21,22,22,23,23,24,24,25,25,26,26,27,27,28,28],"right_children":[2,4,6,8,10,12,14,16,18,20,22,24,26,28,-1,30,32,34,-1,-1,-1,36,38,40,42,44,46,48,50,-1,-1,-1,-1,-1,-1,-1,-1,-1,-1,-1,-1,-1,-1,-1,-1,-1,-1,-1,-1,-1,-1],"split_conditions":[5.238882E-1,8.0174404E-1,8.663243E-1,6.157704E-1,1.13944784E-1,7.74919E-1,9.614777E-1,2.537132E-1,9.2128503E-1,5.167887E-2,9.901139E-2,5.885888E-1,7.563976E-1,9.6529555E-1,-1.264817E-1,9.2505187E-1,3.615853E-1,6.503258E-1,1.08126536E-1,1.3327779E-1,1.1800871E-1,7.654945E-1,7.8080803E-1,7.1897286E-1,1.3652173E-1,6.071229E-1,9.2505187E-1,9.640829E-1,3.9442435E-2,-4.737148E-2,3.7635755E-2,5.584651E-2,1.7337522E-2,3.4886904E-2,6.554025E-2,1.2538818E-1,9.1107614E-2,8.63323E-2,2.2834579E-2,-1.6333599E-3,5.7707965E-2,4.8945144E-2,-4.063597E-2,-3.0019436E-2,-6.990578E-2,-8.6209945E-2,-1.1660498E-1,-1.0236754E-1,-2.0521626E-2,-6.15772E-2,-1.2017887E-1],"split_indices":[0,1,0,1,2,2,2,3,3,0,0,0,0,0,0,2,2,1,0,0,0,3,2,2,2,0,2,0,3,0,0,0,0,0,0,0,0,0,0,0,0,0,0,0,0,0,0,0,0,0,0],"split_type":[0,0,0,0,0,0,0,0,0,0,0,0,0,0,0,0,0,0,0,0,0,0,0,0,0,0,0,0,0,0,0,0,0,0,0,0,0,0,0,0,0,0,0,0,0,0,0,0,0,0,0],"sum_hessian":[2.4698022E3,1.1809196E3,1.2888828E3,2.8336038E2,8.9755914E2,4.1661905E2,8.7226373E2,1.1314229E2,1.702181E2,7.362867E2,1.6127245E2,1.9543562E2,2.2118343E2,4.6124353E2,4.1102023E2,2.459699E1,8.8545296E1,1.4028851E2,2.9929583E1,6.191681E2,1.1711862E2,8.322181E1,7.8050644E1,3.9815464E1,1.5562015E2,9.903334E1,1.22150085E2,2.5626053E2,2.04983E2,1.9870235E1,4.7267547E0,3.2241264E1,5.630403E1,2.3881395E1,1.1640711E2,4.169513E1,4.152668E1,7.428721E1,3.763435E0,3.555052E1,4.2649417E0,5.5437913E0,1.5007637E2,1.8990294E1,8.004305E1,7.4600555E1,4.754953E1,2.5115532E2,5.105222E0,5.138102E0,1.998449E2],"tree_param":{"num_deleted":"0","num_feature":"4","num_nodes":"51","size_leaf_vector":"1"}},{"base_weights":[-5.097835E-4,-9.036249E-1,1.04778E0,-3.2265913E-1,-1.0669088E0,1.223773E0,5.577907E-1,-7.108733E-2,-5.4237115E-1,-1.1135305E0,-5.712735E-1,9.4138837E-1,1.2696601E0,4.6024457E-1,1.0509084E0,-4.654144E-1,5.2850984E-2,-2.8995883E-1,-6.346122E-1,-1.1843318E0,-9.6936244E-1,-4.102665E-1,-9.3206704E-1,7.038982E-1,1.029453E0,1.2905928E-1,1.1395659E-1,2.1825886E-1,6.1776936E-1,1.1563509E-1,8.1724656E-1,-1.9336697E-2,-7.27881E-2,-1.0345799E-2,1.9992603E-2,-4.0684205E-2,4.8453256E-2,-5.3516846E-2,-1.0697915E-1,-1.2551957E-1,-1.12985924E-1,-9.011494E-2,-1.1944783E-1,-7.312962E-2,-2.6011119E-2,6.619192E-4,-9.8627575E-2,9.771652E-2,2.2474479E-2,1.1453626E-1,8.1374675E-2,4.8976067E-2,1.2511462E-2,2.8492043E-2,6.414492E-2,8.821302E-2,3.3096522E-2],"categories":[],"categories_nodes":[],"categories_segments":[],"categories_sizes":[],"default_left":[0,0,0,0,0,0,0,0,0,0,0,0,0,0,0,0,0,0,0,0,0,0,0,0,0,0,0,0,0,0,0,0,0,0,0,0,0,0,0,0,0,0,0,0,0,0,0,0,0,0,0,0,0,0,0,0,0],"id":8,"left_children":[1,3,5,7,9,11,13,15,17,19,21,23,25,27,29,31,33,35,37,39,41,43,45,47,49,-1,-1,51,53,-1,55,-1,-1,-1,-1,-1,-1,-1,-1,-1,-1,-1,-1,-1,-1,-1,-1,-1,-1,-1,-1,-1,-1,-1,-1,-1,-1],"loss_changes":[2.2271353E3,1.195365E2,9.3203125E1,1.5365549E1,2.2148804E1,9.17334E0,1.3443932E1,6.4305544E0,3.2761307E0,8.0407715E0,4.6616306E0,1.6955948E0,3.959961E-1,9.147331E0,2.1389008E-1,2.1047072E0,2.334039E0,3.964368E0,4.1012077E0,8.9489746E-1,3.5610352E0,2.7899876E0,1.3298588E0,4.2931404E0,1.1245346E0,0E0,0E0,2.4058914E0,9.75441E-1,0E0,2.7711964E-1,0E0,0E0,0E0,0E0,0E0,0E0,0E0,0E0,0E0,0E0,0E0,0E0,0E0,0E0,0E0,0E0,0E0,0E0,0E0,0E0,0E0,0E0,0E0,0E0,0E0,0E0],"parents":[2147483647,0,0,1,1,2,2,3,3,4,4,5,5,6,6,7,7,8,8,9,9,10,10,11,11,12,12,13,13,14,14,15,15,16,16,17,17,18,18,19,19,20,20,21,21,22,22,23,23,24,24,27,27,28,28,30,30],"right_children":[2,4,6,8,10,12,14,16,18,20,22,24,26,28,30,32,34,36,38,40,42,44,46,48,50,-1,-1,52,54,-1,56,-1,-1,-1,-1,-1,-1,-1,-1,-1,-1,-1,-1,-1,-1,-1,-1,-1,-1,-1,-1,-1,-1,-1,-1,-1,-1],"split_conditions":[5.174762E-1,7.62286E-1,1.621285E-1,6.822633E-1,2.537132E-1,8.7047815E-1,9.2128503E-1,3.2075128E-1,6.071229E-1,7.132887E-2,9.030012E-1,1.9610526E-1,5.167887E-2,6.503258E-1,4.364818E-2,5.6885403E-1,4.219481E-1,9.522188E-1,9.3558437E-1,2.5760265E-2,9.779495E-1,5.440606E-1,3.7281898E-1,1.6898838E-1,9.901139E-2,1.2905928E-1,1.1395659E-1,3.615853E-1,1.7424573E-1,1.1563509E-1,3.734351E-1,-1.9336697E-2,-7.27881E-2,-1.0345799E-2,1.9992603E-2,-4.0684205E-2,4.8453256E-2,-5.3516846E-2,-1.0697915E-1,-1.2551957E-1,-1.12985924E-1,-9.011494E-2,-1.1944783E-1,-7.312962E-2,-2.6011119E-2,6.619192E-4,-9.8627575E-2,9.771652E-2,2.2474479E-2,1.1453626E-1,8.1374675E-2,4.8976067E-2,1.2511462E-2,2.8492043E-2,6.414492E-2,8.821302E-2,3.3096522E-2],"split_indices":[1,0,0,2,3,3,3,1,0,3,0,2,0,1,2,2,1,2,2,3,0,2,2,2,0,0,0,2,0,0,0,0,0,0,0,0,0,0,0,0,0,0,0,0,0,0,0,0,0,0,0,0,0,0,0,0,0],"split_type":[0,0,0,0,0,0,0,0,0,0,0,0,0,0,0,0,0,0,0,0,0,0,0,0,0,0,0,0,0,0,0,0,0,0,0,0,0,0,0,0,0,0,0,0,0,0,0,0,0,0,0,0,0,0,0,0,0],"sum_hessian":[2.3504592E3,1.2627349E3,1.0877242E3,2.776895E2,9.8504535E2,7.991796E2,2.8854465E2,1.300756E2,1.476139E2,8.992146E2,8.58308E1,1.147199E2,6.844597E2,2.4250652E2,4.603812E1,3.0447481E1,9.962813E1,4.0615463E1,1.0699844E2,5.982151E2,3.0099948E2,6.08245E1,2.5006302E1,3.3465126E1,8.1254776E1,5.819079E2,1.0255185E2,9.65596E1,1.4594691E2,2.9001888E1,1.7036232E1,1.5803662E1,1.4643818E1,4.844167E1,5.1186455E1,3.5702137E1,4.913327E0,8.891097E1,1.8087467E1,2.5041061E2,3.4780447E2,2.3484224E2,6.6157234E1,1.8149944E1,4.2674557E1,1.4131888E0,2.3593113E1,2.064925E1,1.2815875E1,5.005042E1,3.1204355E1,2.3577257E1,7.2982346E1,1.0559016E1,1.3538791E2,1.4312509E1,2.7237232E0],"tree_param":{"num_deleted":"0","num_feature":"4","num_nodes":"57","size_leaf_vector":"1"}},{"base_weights":[-3.664821E-4,-8.5682416E-1,9.9962103E-1,-3.9212188E-1,-1.0598578E0,1.1824684E0,5.1408E-1,-6.2493145E-1,-1.1347276E-1,-1.1448822E0,-9.0248376E-1,8.8956034E-1,1.2314553E0,4.2114606E-1,1.0004188E0,-2.2404511E-1,-6.8588024E-1,-3.6540303E-1,2.839664E-2,-9.865208E-1,-1.17249705E-1,-8.232651E-1,-1.1533468E0,6.569843E-1,9.775774E-1,1.2540336E-1,1.0933598E-1,1.978657E-1,5.69039E-1,1.1060077E-1,7.705805E-1,-3.71724E-2,3.796501E-2,-5.5849638E-2,-9.692355E-2,-5.6459017E-2,-1.923571E-2,-1.0440535E-2,1.5861824E-2,-8.699637E-2,-1.1037954E-1,-6.0415264E-2,-8.795993E-2,-2.9257402E-2,-1.1651125E-1,9.22646E-2,2.0579021E-2,1.0967078E-1,7.616016E-2,3.2683685E-2,3.1115871E-3,2.6071126E-2,5.943506E-2,8.341694E-2,3.0910183E-2],"categories":[],"categories_nodes":[],"categories_segments":[],"categories_sizes":[],"default_left":[0,0,0,0,0,0,0,0,0,0,0,0,0,0,0,0,0,0,0,0,0,0,0,0,0,0,0,0,0,0,0,0,0,0,0,0,0,0,0,0,0,0,0,0,0,0,0,0,0,0,0,0,0,0,0],"id":9,"left_children":[1,3,5,7,9,11,13,15,17,19,21,23,25,27,29,31,33,35,37,39,-1,41,43,45,47,-1,-1,49,51,-1,53,-1,-1,-1,-1,-1,-1,-1,-1,-1,-1,-1,-1,-1,-1,-1,-1,-1,-1,-1,-1,-1,-1,-1,-1],"loss_changes":[1.9148042E3,1.13210815E2,9.096399E1,2.3787224E1,1.0173462E1,9.644531E0,1.2411888E1,4.7365646E0,6.037299E0,1.204895E0,4.982559E0,1.6268921E0,6.2023926E-1,7.816265E0,2.3557281E-1,2.6283514E0,5.7119904E0,1.987814E0,1.8982102E0,2.2202301E-1,0E0,2.3119507E0,3.5938263E-1,3.823472E0,1.1810684E0,0E0,0E0,2.0803084E0,9.6813583E-1,0E0,2.5299168E-1,0E0,0E0,0E0,0E0,0E0,0E0,0E0,0E0,0E0,0E0,0E0,0E0,0E0,0E0,0E0,0E0,0E0,0E0,0E0,0E0,0E0,0E0,0E0,0E0],"parents":[2147483647,0,0,1,1,2,2,3,3,4,4,5,5,6,6,7,7,8,8,9,9,10,10,11,11,12,12,13,13,14,14,15,15,16,16,17,17,18,18,19,19,21,21,22,22,23,23,24,24,27,27,28,28,30,30],"right_children":[2,4,6,8,10,12,14,16,18,20,22,24,26,28,30,32,34,36,38,40,-1,42,44,46,48,-1,-1,50,52,-1,54,-1,-1,-1,-1,-1,-1,-1,-1,-1,-1,-1,-1,-1,-1,-1,-1,-1,-1,-1,-1,-1,-1,-1,-1],"split_conditions":[5.174762E-1,8.258793E-1,1.621285E-1,2.9055774E-1,7.132887E-2,8.7047815E-1,9.2128503E-1,5.885888E-1,3.2075128E-1,9.32049E-1,9.779495E-1,1.9610526E-1,5.167887E-2,6.503258E-1,4.364818E-2,9.2693865E-1,9.1503525E-1,7.460185E-1,4.219481E-1,9.614777E-1,-1.17249705E-1,7.557697E-1,6.314535E-1,1.6898838E-1,9.901139E-2,1.2540336E-1,1.0933598E-1,5.826783E-1,1.22573644E-1,1.1060077E-1,3.734351E-1,-3.71724E-2,3.796501E-2,-5.5849638E-2,-9.692355E-2,-5.6459017E-2,-1.923571E-2,-1.0440535E-2,1.5861824E-2,-8.699637E-2,-1.1037954E-1,-6.0415264E-2,-8.795993E-2,-2.9257402E-2,-1.1651125E-1,9.22646E-2,2.0579021E-2,1.0967078E-1,7.616016E-2,3.2683685E-2,3.1115871E-3,2.6071126E-2,5.943506E-2,8.341694E-2,3.0910183E-2],"split_indices":[1,0,0,3,3,3,3,0,1,0,0,2,0,1,2,2,2,0,1,2,0,2,2,2,0,0,0,2,2,0,0,0,0,0,0,0,0,0,0,0,0,0,0,0,0,0,0,0,0,0,0,0,0,0,0],"split_type":[0,0,0,0,0,0,0,0,0,0,0,0,0,0,0,0,0,0,0,0,0,0,0,0,0,0,0,0,0,0,0,0,0,0,0,0,0,0,0,0,0,0,0,0,0,0,0,0,0,0,0,0,0,0,0],"sum_hessian":[2.2337532E3,1.2033043E3,1.0304489E3,3.6677142E2,8.365329E2,7.4751184E2,2.82937E2,1.9914464E2,1.6762679E2,5.390343E2,2.974986E2,1.0984887E2,6.37663E2,2.3911142E2,4.3825596E1,2.689839E1,1.7224625E2,5.982122E1,1.0780556E2,8.549203E1,4.5354227E2,2.2935388E2,6.8144714E1,3.2482204E1,7.736666E1,5.4111176E2,9.6551254E1,9.620477E1,1.4290665E2,2.7417665E1,1.640793E1,2.1920372E1,4.978017E0,1.2087656E2,5.1369686E1,2.6758171E1,3.306305E1,5.347212E1,5.433344E1,4.7099174E1,3.839285E1,4.9305218E1,1.8004868E2,1.2676919E0,6.687703E1,1.9786863E1,1.2695342E1,4.7234547E1,3.0132114E1,5.370617E1,4.2498604E1,1.1698926E1,1.3120772E2,1.3711033E1,2.6968975E0],"tree_param":{"num_deleted":"0","num_feature":"4","num_nodes":"55","size_leaf_vector":"1"}},{"base_weights":[-2.1553237E-4,-7.996502E-1,9.7109985E-1,-3.9110726E-1,-1.0476236E0,5.1621383E-1,1.1520151E0,-1.4808398E-1,-6.59347E-1,-9.5315164E-1,-1.1551571E-1,4.2007145E-1,9.884369E-1,1.1974608E0,8.6954683E-1,8.4145986E-2,-2.7323416E-1,-4.6562392E-1,-8.3966607E-1,-9.0553224E-1,-1.1919029E-1,2.1397874E-1,5.285819E-1,1.02181174E-1,4.4189876E-1,1.22261465E-1,1.0361594E-1,1.0053948E0,6.739727E-1,3.8173057E-2,-1.516196E-3,4.8392136E-2,-3.051625E-2,-2.3665491E-2,-5.512991E-2,-7.063698E-2,-1.0407489E-1,-9.3376935E-2,-6.185722E-2,2.791897E-2,-2.4022086E-2,5.7414066E-2,3.798493E-2,-2.6412976E-3,8.289375E-2,1.1207546E-1,7.643931E-2,8.9330606E-2,4.8774194E-2],"categories":[],"categories_nodes":[],"categories_segments":[],"categories_sizes":[],"default_left":[0,0,0,0,0,0,0,0,0,0,0,0,0,0,0,0,0,0,0,0,0,0,0,0,0,0,0,0,0,0,0,0,0,0,0,0,0,0,0,0,0,0,0,0,0,0,0,0,0],"id":10,"left_children":[1,3,5,7,9,11,13,15,17,19,-1,21,23,25,27,29,31,33,35,37,-1,39,41,-1,43,-1,-1,45,47,-1,-1,-1,-1,-1,-1,-1,-1,-1,-1,-1,-1,-1,-1,-1,-1,-1,-1,-1,-1],"loss_changes":[1.6485724E3,1.1757092E2,7.828558E1,2.8681053E1,6.255127E0,1.2049492E1,7.751404E0,6.7922335E0,6.9292984E0,3.368103E0,0E0,5.027008E0,3.8210678E-1,1.116333E0,1.9414749E0,2.4387634E0,3.812173E0,1.8953533E0,2.1405716E0,2.098755E0,0E0,2.4649172E0,7.975731E-1,0E0,8.180121E-1,0E0,0E0,7.040558E-1,1.3386955E0,0E0,0E0,0E0,0E0,0E0,0E0,0E0,0E0,0E0,0E0,0E0,0E0,0E0,0E0,0E0,0E0,0E0,0E0,0E0,0E0],"parents":[2147483647,0,0,1,1,2,2,3,3,4,4,5,5,6,6,7,7,8,8,9,9,11,11,12,12,13,13,14,14,15,15,16,16,17,17,18,18,19,19,21,21,22,22,24,24,27,27,28,28],"right_children":[2,4,6,8,10,12,14,16,18,20,-1,22,24,26,28,30,32,34,36,38,-1,40,42,-1,44,-1,-1,46,48,-1,-1,-1,-1,-1,-1,-1,-1,-1,-1,-1,-1,-1,-1,-1,-1,-1,-1,-1,-1],"split_conditions":[5.4066324E-1,8.663243E-1,8.463865E-1,7.74919E-1,9.614777E-1,9.2128503E-1,1.2952185E-1,5.885888E-1,7.563976E-1,9.9438184E-1,-1.1551571E-1,6.503258E-1,3.842296E-1,5.167887E-2,7.654945E-1,3.1303635E-1,1.3652173E-1,6.071229E-1,9.2505187E-1,2.6917315E-1,-1.1919029E-1,8.6294824E-1,5.304526E-1,1.02181174E-1,4.2879513E-1,1.22261465E-1,1.0361594E-1,9.901139E-2,1.6898838E-1,3.8173057E-2,-1.516196E-3,4.8392136E-2,-3.051625E-2,-2.3665491E-2,-5.512991E-2,-7.063698E-2,-1.0407489E-1,-9.3376935E-2,-6.185722E-2,2.791897E-2,-2.4022086E-2,5.7414066E-2,3.798493E-2,-2.6412976E-3,8.289375E-2,1.1207546E-1,7.643931E-2,8.9330606E-2,4.8774194E-2],"split_indices":[1,0,1,2,2,3,2,0,0,0,0,1,0,0,3,2,2,0,2,3,0,2,2,0,0,0,0,0,2,0,0,0,0,0,0,0,0,0,0,0,0,0,0,0,0,0,0,0,0],"split_type":[0,0,0,0,0,0,0,0,0,0,0,0,0,0,0,0,0,0,0,0,0,0,0,0,0,0,0,0,0,0,0,0,0,0,0,0,0,0,0,0,0,0,0,0,0,0,0,0,0],"sum_hessian":[2.1210725E3,1.1635759E3,9.5749664E2,4.4046893E2,7.2310693E2,2.735491E2,6.839475E2,2.3191115E2,2.0855777E2,3.9018176E2,3.329252E2,2.2884659E2,4.470253E1,5.863686E2,9.757895E1,8.13272E1,1.5058395E2,1.0226891E2,1.0628886E2,3.292958E2,6.088596E1,7.995703E1,1.4888956E2,4.1310272E1,3.392256E0,5.0157227E2,8.4796326E1,5.5138424E1,4.2440525E1,1.9637594E1,6.1689606E1,5.5202E0,1.4506375E2,2.887145E1,7.339746E1,6.663188E1,3.965697E1,2.9774356E2,3.1552248E1,7.025552E1,9.70151E0,1.1178739E2,3.7102165E1,1.9565785E0,1.4356775E0,3.4820545E1,2.0317879E1,1.774481E1,2.4695715E1],"tree_param":{"num_deleted":"0","num_feature":"4","num_nodes":"49","size_leaf_vector":"1"}},{"base_weights":[4.380907E-5,-7.5790286E-1,9.2962795E-1,-3.5983723E-1,-1.011095E0,4.7644562E-1,1.1192131E0,-1.339227E-1,-6.161073E-1,-8.803903E-1,-1.0974705E0,3.845825E-1,9.457076E-1,1.1681306E0,8.246553E-1,7.631637E-2,-2.4801761E-1,-4.2862245E-1,-7.9549176E-1,-7.611376E-1,-1.0127897E0,-1.02861166E-1,-1.1844622E-1,1.9340093E-1,4.870118E-1,9.79033E-2,4.2121553E-1,1.19540095E-1,9.965464E-2,9.627076E-1,6.3074684E-1,1.943708E-2,-1.496616E-2,4.422214E-2,-2.7743926E-2,-2.1479217E-2,-5.1038127E-2,-6.613168E-2,-1.0040604E-1,-8.394771E-2,-1.3077217E-2,-8.980151E-2,-1.0985345E-1,2.527498E-2,-2.1871245E-2,5.3021587E-2,3.4753293E-2,-2.4649254E-3,7.977631E-2,1.0833541E-1,7.1877606E-2,8.463958E-2,4.5152143E-2],"categories":[],"categories_nodes":[],"categories_segments":[],"categories_sizes":[],"default_left":[0,0,0,0,0,0,0,0,0,0,0,0,0,0,0,0,0,0,0,0,0,0,0,0,0,0,0,0,0,0,0,0,0,0,0,0,0,0,0,0,0,0,0,0,0,0,0,0,0,0,0,0,0],"id":11,"left_children":[1,3,5,7,9,11,13,15,17,19,21,23,25,27,29,31,33,35,37,39,41,-1,-1,43,45,-1,47,-1,-1,49,51,-1,-1,-1,-1,-1,-1,-1,-1,-1,-1,-1,-1,-1,-1,-1,-1,-1,-1,-1,-1,-1,-1],"loss_changes":[1.4200879E3,1.1153607E2,7.724396E1,2.4997253E1,6.688965E0,1.1221531E1,8.222656E0,5.572204E0,6.475647E0,3.5688171E0,1.2029419E0,4.340046E0,3.4466934E-1,1.3557129E0,1.9143295E0,2.22215E0,3.1750622E0,1.6608696E0,2.2019272E0,7.2300415E0,2.6556396E-1,0E0,0E0,2.0279493E0,7.0025635E-1,0E0,7.4875563E-1,0E0,0E0,7.8466797E-1,1.2439423E0,0E0,0E0,0E0,0E0,0E0,0E0,0E0,0E0,0E0,0E0,0E0,0E0,0E0,0E0,0E0,0E0,0E0,0E0,0E0,0E0,0E0,0E0],"parents":[2147483647,0,0,1,1,2,2,3,3,4,4,5,5,6,6,7,7,8,8,9,9,10,10,11,11,12,12,13,13,14,14,15,15,16,16,17,17,18,18,19,19,20,20,23,23,24,24,26,26,29,29,30,30],"right_children":[2,4,6,8,10,12,14,16,18,20,22,24,26,28,30,32,34,36,38,40,42,-1,-1,44,46,-1,48,-1,-1,50,52,-1,-1,-1,-1,-1,-1,-1,-1,-1,-1,-1,-1,-1,-1,-1,-1,-1,-1,-1,-1,-1,-1],"split_conditions":[5.4066324E-1,8.663243E-1,8.463865E-1,7.74919E-1,9.6529555E-1,9.2128503E-1,1.2952185E-1,5.885888E-1,7.563976E-1,9.286759E-1,9.970402E-1,6.503258E-1,3.842296E-1,5.167887E-2,7.654945E-1,6.0887563E-1,1.3652173E-1,6.071229E-1,9.2505187E-1,9.5551056E-1,9.32049E-1,-1.02861166E-1,-1.1844622E-1,8.6294824E-1,5.304526E-1,9.79033E-2,4.2879513E-1,1.19540095E-1,9.965464E-2,9.901139E-2,1.6898838E-1,1.943708E-2,-1.496616E-2,4.422214E-2,-2.7743926E-2,-2.1479217E-2,-5.1038127E-2,-6.613168E-2,-1.0040604E-1,-8.394771E-2,-1.3077217E-2,-8.980151E-2,-1.0985345E-1,2.527498E-2,-2.1871245E-2,5.3021587E-2,3.4753293E-2,-2.4649254E-3,7.977631E-2,1.0833541E-1,7.1877606E-2,8.463958E-2,4.5152143E-2],"split_indices":[1,0,1,2,0,3,2,0,0,2,0,1,0,0,3,2,2,0,2,0,0,0,0,2,2,0,0,0,0,0,2,0,0,0,0,0,0,0,0,0,0,0,0,0,0,0,0,0,0,0,0,0,0],"split_type":[0,0,0,0,0,0,0,0,0,0,0,0,0,0,0,0,0,0,0,0,0,0,0,0,0,0,0,0,0,0,0,0,0,0,0,0,0,0,0,0,0,0,0,0,0,0,0,0,0,0,0,0,0],"sum_hessian":[2.0135234E3,1.1092604E3,9.04263E2,4.3219302E2,6.770674E2,2.6774985E2,6.365131E2,2.3050989E2,2.0168312E2,2.7385638E2,4.0321103E2,2.2543756E2,4.2312294E1,5.433181E2,9.319501E1,8.120575E1,1.4930414E2,1.002723E2,1.0141082E2,1.4763226E2,1.2622411E2,2.3221991E2,1.709911E2,7.965386E1,1.4578369E2,3.8969604E1,3.342691E0,4.6366055E2,7.9657585E1,5.2122124E1,4.1072887E1,5.343194E1,2.7773813E1,5.5303516E0,1.4377379E2,2.8738194E1,7.15341E1,6.4249214E1,3.716161E1,1.310181E2,1.6614166E1,5.8881187E1,6.7342926E1,6.996484E1,9.689012E0,1.09167305E2,3.661639E1,1.9583613E0,1.3843297E0,3.257137E1,1.9550755E1,1.6952566E1,2.412032E1],"tree_param":{"num_deleted":"0","num_feature":"4","num_nodes":"53","size_leaf_vector":"1"}},{"base_weights":[2.0304676E-4,9.078435E-1,-7.0499754E-1,1.1143172E0,5.178934E-1,-3.1438625E-1,-9.7675115E-1,1.1712196E-1,9.060452E-1,3.7378114E-1,7.992994E-1,-1.05370045E-1,-5.6836694E-1,-8.721274E-1,-1.1000329E-1,1.08826615E-1,7.785511E-1,1.9173548E-1,4.5389068E-1,1.0771078E-1,7.201362E-1,-2.1873026E-1,9.360463E-2,-3.8731623E-1,-7.5343233E-1,-8.212054E-1,-1.1393253E-1,8.5580595E-2,4.1243296E-2,-1.346189E-2,2.466283E-2,-1.5157624E-2,4.666796E-2,3.956975E-2,7.853567E-2,-2.3431148E-2,9.3565725E-2,5.5829775E-2,-3.1944916E-3,-3.5260048E-2,-9.3967274E-2,-6.187107E-2,-9.694645E-2,-8.522498E-2,-5.199488E-2],"categories":[],"categories_nodes":[],"categories_segments":[],"categories_sizes":[],"default_left":[0,0,0,0,0,0,0,0,0,0,0,0,0,0,0,0,0,0,0,0,0,0,0,0,0,0,0,0,0,0,0,0,0,0,0,0,0,0,0,0,0,0,0,0,0],"id":12,"left_children":[1,3,5,7,9,11,13,-1,15,17,19,21,23,25,-1,-1,27,29,31,-1,33,35,37,39,41,43,-1,-1,-1,-1,-1,-1,-1,-1,-1,-1,-1,-1,-1,-1,-1,-1,-1,-1,-1],"loss_changes":[1.2248143E3,6.6788574E1,1.1400348E2,5.411621E0,1.1523506E1,2.3472813E1,7.225586E0,0E0,1.9781494E0,2.7519226E0,1.3763123E0,5.5331073E0,6.4058685E0,3.8006287E0,0E0,0E0,1.7702637E0,1.1298907E0,1.1118126E0,0E0,1.3644562E0,3.025097E0,5.2338343E0,1.6456747E0,2.2463646E0,2.3247528E0,0E0,0E0,0E0,0E0,0E0,0E0,0E0,0E0,0E0,0E0,0E0,0E0,0E0,0E0,0E0,0E0,0E0,0E0,0E0],"parents":[2147483647,0,0,1,1,2,2,3,3,4,4,5,5,6,6,8,8,9,9,10,10,11,11,12,12,13,13,16,16,17,17,18,18,20,20,21,21,22,22,23,23,24,24,25,25],"right_children":[2,4,6,8,10,12,14,-1,16,18,20,22,24,26,-1,-1,28,30,32,-1,34,36,38,40,42,44,-1,-1,-1,-1,-1,-1,-1,-1,-1,-1,-1,-1,-1,-1,-1,-1,-1,-1,-1],"split_conditions":[4.4072032E-1,1.13944784E-1,8.663243E-1,5.167887E-2,8.463865E-1,7.74919E-1,9.614777E-1,1.1712196E-1,2.4420362E-2,6.503258E-1,1.740457E-2,4.219481E-1,7.563976E-1,9.9438184E-1,-1.1000329E-1,1.08826615E-1,2.6675642E-1,2.658416E-1,1.22573644E-1,1.0771078E-1,4.0099878E-2,8.6289126E-1,2.658416E-1,9.7568655E-1,9.2505187E-1,2.6917315E-1,-1.1393253E-1,8.5580595E-2,4.1243296E-2,-1.346189E-2,2.466283E-2,-1.5157624E-2,4.666796E-2,3.956975E-2,7.853567E-2,-2.3431148E-2,9.3565725E-2,5.5829775E-2,-3.1944916E-3,-3.5260048E-2,-9.3967274E-2,-6.187107E-2,-9.694645E-2,-8.522498E-2,-5.199488E-2],"split_indices":[0,2,0,0,1,2,2,0,2,1,0,1,0,0,0,0,0,2,2,0,0,0,2,2,2,3,0,0,0,0,0,0,0,0,0,0,0,0,0,0,0,0,0,0,0],"split_type":[0,0,0,0,0,0,0,0,0,0,0,0,0,0,0,0,0,0,0,0,0,0,0,0,0,0,0,0,0,0,0,0,0,0,0,0,0,0,0,0,0,0,0,0,0],"sum_hessian":[1.9115674E3,8.356904E2,1.075877E3,5.4517145E2,2.9051898E2,4.4229333E2,6.335836E2,4.2455447E2,1.2061698E2,1.9366733E2,9.685166E1,2.4339973E2,1.9889362E2,3.4709433E2,2.864893E2,4.6549812E1,7.406717E1,6.0217945E1,1.3344939E2,1.8682558E1,7.81691E1,1.5499591E2,8.840383E1,1.02100685E2,9.679293E1,2.9495563E2,5.213871E1,6.0057E1,1.4010174E1,8.461196E0,5.175675E1,2.5359755E0,1.309134E2,1.4266674E1,6.3902428E1,1.5371814E2,1.2777681E0,1.8071062E1,7.033276E1,9.760457E1,4.496117E0,6.1995407E1,3.4797523E1,2.6574197E2,2.9213636E1],"tree_param":{"num_deleted":"0","num_feature":"4","num_nodes":"45","size_leaf_vector":"1"}},{"base_weights":[3.9648806E-4,8.7039083E-1,-6.669327E-1,1.0885725E0,4.79497E-1,-2.884957E-1,-9.438135E-1,1.1504135E-1,8.681884E-1,3.4168345E-1,7.573711E-1,-9.4853595E-2,-5.297445E-1,-8.3453095E-1,-1.07538216E-1,1.0567961E-1,7.3914355E-1,1.7311639E-1,4.1719505E-1,1.0430195E-1,6.7804694E-1,6.493893E-3,-2.7892637E-1,-6.382347E-1,-2.286603E-1,-7.8215903E-1,-1.11692324E-1,8.176044E-2,3.8126845E-2,2.7514284E-2,-3.0369553E-4,-3.7778337E-3,4.329319E-2,4.7255185E-2,7.9387866E-2,2.6088146E-2,-4.484178E-3,-3.068909E-2,8.660697E-2,-4.613699E-2,-9.417366E-2,-4.646885E-2,4.8378087E-3,-8.137995E-2,-4.8381004E-2],"categories":[],"categories_nodes":[],"categories_segments":[],"categories_sizes":[],"default_left":[0,0,0,0,0,0,0,0,0,0,0,0,0,0,0,0,0,0,0,0,0,0,0,0,0,0,0,0,0,0,0,0,0,0,0,0,0,0,0,0,0,0,0,0,0],"id":13,"left_children":[1,3,5,7,9,11,13,-1,15,17,19,21,23,25,-1,-1,27,29,31,-1,33,35,37,39,41,43,-1,-1,-1,-1,-1,-1,-1,-1,-1,-1,-1,-1,-1,-1,-1,-1,-1,-1,-1],"loss_changes":[1.0553635E3,6.677527E1,1.0751889E2,5.892334E0,1.0634155E1,2.0322021E1,7.6378784E0,0E0,2.0146637E0,2.3712826E0,1.4109764E0,4.537499E0,6.1896057E0,3.9883423E0,0E0,0E0,1.6968079E0,1.0989251E0,9.6051216E-1,0E0,1.434391E0,2.0721328E0,3.0307875E0,7.18911E0,3.4838185E0,2.2556E0,0E0,0E0,0E0,0E0,0E0,0E0,0E0,0E0,0E0,0E0,0E0,0E0,0E0,0E0,0E0,0E0,0E0,0E0,0E0],"parents":[2147483647,0,0,1,1,2,2,3,3,4,4,5,5,6,6,8,8,9,9,10,10,11,11,12,12,13,13,16,16,17,17,18,18,20,20,21,21,22,22,23,23,24,24,25,25],"right_children":[2,4,6,8,10,12,14,-1,16,18,20,22,24,26,-1,-1,28,30,32,-1,34,36,38,40,42,44,-1,-1,-1,-1,-1,-1,-1,-1,-1,-1,-1,-1,-1,-1,-1,-1,-1,-1,-1],"split_conditions":[4.4072032E-1,1.13944784E-1,8.663243E-1,5.167887E-2,8.463865E-1,7.74919E-1,9.614777E-1,1.1504135E-1,2.4420362E-2,6.503258E-1,1.740457E-2,6.973616E-1,3.3542994E-1,9.9438184E-1,-1.07538216E-1,1.0567961E-1,2.6675642E-1,6.505936E-1,1.5791269E-1,1.0430195E-1,1.9610526E-1,2.658416E-1,8.6289126E-1,9.171992E-1,8.915145E-1,2.6917315E-1,-1.11692324E-1,8.176044E-2,3.8126845E-2,2.7514284E-2,-3.0369553E-4,-3.7778337E-3,4.329319E-2,4.7255185E-2,7.9387866E-2,2.6088146E-2,-4.484178E-3,-3.068909E-2,8.660697E-2,-4.613699E-2,-9.417366E-2,-4.646885E-2,4.8378087E-3,-8.137995E-2,-4.8381004E-2],"split_indices":[0,2,0,0,1,2,2,0,2,1,0,0,1,0,0,0,0,2,0,0,2,2,0,2,2,3,0,0,0,0,0,0,0,0,0,0,0,0,0,0,0,0,0,0,0],"split_type":[0,0,0,0,0,0,0,0,0,0,0,0,0,0,0,0,0,0,0,0,0,0,0,0,0,0,0,0,0,0,0,0,0,0,0,0,0,0,0,0,0,0,0,0,0],"sum_hessian":[1.8157979E3,7.880786E2,1.0277192E3,5.046293E2,2.834493E2,4.350883E2,5.926309E2,3.9075998E2,1.1386934E2,1.9096739E2,9.248192E1,2.4213113E2,1.9295715E2,3.277448E2,2.6488608E2,4.3338226E1,7.053111E1,6.0098995E1,1.3086841E2,1.745982E1,7.5022095E1,1.56777E2,8.535414E1,1.4102249E2,5.1934658E1,2.7965103E2,4.8093773E1,5.6794773E1,1.3736339E1,3.7700974E1,2.2398024E1,4.3283744E0,1.2654002E2,2.887503E1,4.6147068E1,2.5639877E1,1.3113712E2,8.403374E1,1.3204057E0,9.0692116E1,5.0330376E1,2.7677195E1,2.4257463E1,2.5127515E2,2.8375895E1],"tree_param":{"num_deleted":"0","num_feature":"4","num_nodes":"45","size_leaf_vector":"1"}},{"base_weights":[6.2576315E-4,8.3461195E-1,-6.3046545E-1,1.064756E0,4.440166E-1,-2.6461554E-1,-9.1205937E-1,1.13202654E-1,8.3178E-1,3.125098E-1,7.1767455E-1,-8.551266E-2,-4.9356112E-1,-7.6045567E-1,-1.0179275E0,1.0273731E-1,7.011608E-1,1.569843E-1,3.8318327E-1,1.0430064E-1,6.4488596E-1,-1.8275169E-1,8.3606154E-2,-3.226361E-1,-6.777786E-1,-6.290338E-1,-9.1628027E-1,-9.362778E-1,-1.12483956E-1,7.8066975E-2,3.5217047E-2,1.1763285E-2,6.539836E-2,-1.7059239E-2,3.9546344E-2,7.8424275E-2,4.9559064E-2,-5.088062E-2,-1.3315412E-2,4.911709E-2,-2.4372665E-3,-2.8922493E-2,-8.8083975E-2,-5.456854E-2,-9.0458326E-2,-7.153959E-2,2.720567E-3,-7.805544E-2,-1.0215696E-1,-8.8419475E-2,-1.060212E-1],"categories":[],"categories_nodes":[],"categories_segments":[],"categories_sizes":[],"default_left":[0,0,0,0,0,0,0,0,0,0,0,0,0,0,0,0,0,0,0,0,0,0,0,0,0,0,0,0,0,0,0,0,0,0,0,0,0,0,0,0,0,0,0,0,0,0,0,0,0,0,0],"id":14,"left_children":[1,3,5,7,9,11,13,-1,15,17,19,21,23,25,27,-1,29,31,33,-1,35,37,39,41,43,45,47,49,-1,-1,-1,-1,-1,-1,-1,-1,-1,-1,-1,-1,-1,-1,-1,-1,-1,-1,-1,-1,-1,-1,-1],"loss_changes":[9.09304E2,6.642572E1,1.01075745E2,6.3862915E0,9.767155E0,1.7554873E1,8.138733E0,0E0,2.0523758E0,2.0204468E0,1.4430313E0,3.9948387E0,5.7057953E0,4.1806335E0,1.7753296E0,0E0,1.618084E0,1.1128805E0,9.4781876E-1,0E0,1.1847878E0,2.4220576E0,3.9300447E0,1.601059E0,2.192154E0,7.3418503E0,6.9007874E-1,2.869568E-1,0E0,0E0,0E0,0E0,0E0,0E0,0E0,0E0,0E0,0E0,0E0,0E0,0E0,0E0,0E0,0E0,0E0,0E0,0E0,0E0,0E0,0E0,0E0],"parents":[2147483647,0,0,1,1,2,2,3,3,4,4,5,5,6,6,8,8,9,9,10,10,11,11,12,12,13,13,14,14,16,16,17,17,18,18,20,20,21,21,22,22,23,23,24,24,25,25,26,26,27,27],"right_children":[2,4,6,8,10,12,14,-1,16,18,20,22,24,26,28,-1,30,32,34,-1,36,38,40,42,44,46,48,50,-1,-1,-1,-1,-1,-1,-1,-1,-1,-1,-1,-1,-1,-1,-1,-1,-1,-1,-1,-1,-1,-1,-1],"split_conditions":[4.4072032E-1,1.13944784E-1,8.663243E-1,5.167887E-2,8.463865E-1,7.74919E-1,9.6529555E-1,1.13202654E-1,2.4420362E-2,6.503258E-1,1.20152235E-2,4.219481E-1,7.563976E-1,9.286759E-1,9.970402E-1,1.0273731E-1,2.6675642E-1,9.2505187E-1,1.22573644E-1,1.0430064E-1,7.654945E-1,3.442429E-1,2.658416E-1,9.7568655E-1,9.2505187E-1,9.5551056E-1,9.32049E-1,9.7422117E-1,-1.12483956E-1,7.8066975E-2,3.5217047E-2,1.1763285E-2,6.539836E-2,-1.7059239E-2,3.9546344E-2,7.8424275E-2,4.9559064E-2,-5.088062E-2,-1.3315412E-2,4.911709E-2,-2.4372665E-3,-2.8922493E-2,-8.8083975E-2,-5.456854E-2,-9.0458326E-2,-7.153959E-2,2.720567E-3,-7.805544E-2,-1.0215696E-1,-8.8419475E-2,-1.060212E-1],"split_indices":[0,2,0,0,1,2,0,0,2,1,0,1,0,2,0,0,0,2,2,0,3,2,2,2,2,0,0,2,0,0,0,0,0,0,0,0,0,0,0,0,0,0,0,0,0,0,0,0,0,0,0],"split_type":[0,0,0,0,0,0,0,0,0,0,0,0,0,0,0,0,0,0,0,0,0,0,0,0,0,0,0,0,0,0,0,0,0,0,0,0,0,0,0,0,0,0,0,0,0,0,0,0,0,0,0],"sum_hessian":[1.7256595E3,7.431997E2,9.8245984E2,4.665664E2,2.766333E2,4.2814664E2,5.5431323E2,3.590375E2,1.0752891E2,1.8829146E2,8.834183E1,2.409928E2,1.8715384E2,2.3128925E2,3.2302396E2,4.0306843E1,6.722206E1,5.9836105E1,1.2845537E2,1.3714584E1,7.462724E1,1.5296259E2,8.803021E1,9.850654E1,8.864729E1,1.2820142E2,1.0308782E2,1.8868257E2,1.3434138E2,5.3741444E1,1.3480619E1,5.659195E1,3.2441554E0,2.5070674E0,1.25948296E2,3.6398663E1,3.8228577E1,1.8973307E1,1.3398927E2,1.7694347E1,7.033586E1,9.4375824E1,4.1307135E0,5.817285E1,3.0474443E1,1.1321236E2,1.498906E1,4.871017E1,5.4377655E1,1.385793E2,5.0103268E1],"tree_param":{"num_deleted":"0","num_feature":"4","num_nodes":"51","size_leaf_vector":"1"}},{"base_weights":[6.43233E-4,-5.832365E-1,8.166575E-1,-2.2937036E-1,-8.8143325E-1,1.0458252E0,4.2889324E-1,-4.5984503E-2,-4.3645486E-1,-7.623318E-1,-1.0313548E0,1.1156781E-1,8.067438E-1,3.0176163E-1,6.7964906E-1,4.051622E-2,-2.3485745E-1,-2.871803E-1,-6.1604357E-1,-7.069537E-1,-1.0784785E-1,-9.47841E-1,-1.0929984E-1,9.96479E-2,6.813663E-1,4.1541368E-1,2.2533265E-1,9.8273456E-2,5.9984434E-1,1.1862064E-2,-8.29112E-3,-1.1066531E-2,-5.055839E-2,-2.5975803E-2,-8.43503E-2,-4.8801158E-2,-8.738031E-2,-7.411867E-2,-3.990585E-2,-5.9157837E-2,-9.726452E-2,7.447847E-2,3.7638064E-2,5.808369E-2,2.3529937E-2,-4.0970113E-2,2.4199225E-2,2.7273241E-2,6.6851705E-2],"categories":[],"categories_nodes":[],"categories_segments":[],"categories_sizes":[],"default_left":[0,0,0,0,0,0,0,0,0,0,0,0,0,0,0,0,0,0,0,0,0,0,0,0,0,0,0,0,0,0,0,0,0,0,0,0,0,0,0,0,0,0,0,0,0,0,0,0,0],"id":15,"left_children":[1,3,5,7,9,11,13,15,17,19,21,-1,23,25,27,29,31,33,35,37,-1,39,-1,-1,41,43,45,-1,47,-1,-1,-1,-1,-1,-1,-1,-1,-1,-1,-1,-1,-1,-1,-1,-1,-1,-1,-1,-1],"loss_changes":[7.8332825E2,1.0092493E2,6.0487183E1,1.6675062E1,8.494049E0,6.286316E0,7.9692383E0,3.8369045E0,5.3549423E0,4.3755493E0,1.3397217E-1,0E0,1.721489E0,1.4000053E0,1.4777641E0,1.5670432E0,2.4231977E0,1.5285673E0,2.6358337E0,2.3670044E0,0E0,3.4399414E-1,0E0,0E0,9.560127E-1,1.8880081E0,1.209949E0,0E0,1.3950748E0,0E0,0E0,0E0,0E0,0E0,0E0,0E0,0E0,0E0,0E0,0E0,0E0,0E0,0E0,0E0,0E0,0E0,0E0,0E0,0E0],"parents":[2147483647,0,0,1,1,2,2,3,3,4,4,5,5,6,6,7,7,8,8,9,9,10,10,12,12,13,13,14,14,15,15,16,16,17,17,18,18,19,19,21,21,24,24,25,25,26,26,28,28],"right_children":[2,4,6,8,10,12,14,16,18,20,22,-1,24,26,28,30,32,34,36,38,-1,40,-1,-1,42,44,46,-1,48,-1,-1,-1,-1,-1,-1,-1,-1,-1,-1,-1,-1,-1,-1,-1,-1,-1,-1,-1,-1],"split_conditions":[5.841146E-1,8.663243E-1,1.13944784E-1,7.4712E-1,9.614777E-1,5.167887E-2,8.463865E-1,6.973616E-1,7.563976E-1,9.9438184E-1,9.7711074E-1,1.1156781E-1,2.4420362E-2,3.2679126E-1,1.740457E-2,5.826783E-1,2.5398147E-1,9.7568655E-1,9.2505187E-1,2.6917315E-1,-1.0784785E-1,9.109817E-1,-1.0929984E-1,9.96479E-2,2.6675642E-1,8.0307835E-1,1.5791269E-1,9.8273456E-2,4.0099878E-2,1.1862064E-2,-8.29112E-3,-1.1066531E-2,-5.055839E-2,-2.5975803E-2,-8.43503E-2,-4.8801158E-2,-8.738031E-2,-7.411867E-2,-3.990585E-2,-5.9157837E-2,-9.726452E-2,7.447847E-2,3.7638064E-2,5.808369E-2,2.3529937E-2,-4.0970113E-2,2.4199225E-2,2.7273241E-2,6.6851705E-2],"split_indices":[1,0,2,2,2,0,1,0,0,0,2,0,2,2,0,2,1,2,2,3,0,0,0,0,0,3,0,0,0,0,0,0,0,0,0,0,0,0,0,0,0,0,0,0,0,0,0,0,0],"split_type":[0,0,0,0,0,0,0,0,0,0,0,0,0,0,0,0,0,0,0,0,0,0,0,0,0,0,0,0,0,0,0,0,0,0,0,0,0,0,0,0,0,0,0,0,0,0,0,0,0],"sum_hessian":[1.6420792E3,9.573531E2,6.8472614E2,4.3861896E2,5.1873413E2,4.2930865E2,2.5541748E2,2.3326804E2,2.053509E2,2.924719E2,2.2626224E2,3.2940063E2,9.990801E1,1.7095021E2,8.446727E1,1.6053235E2,7.2735695E1,1.13559265E2,9.179164E1,2.5163094E2,4.0840973E1,1.03040665E2,1.2322158E2,3.698712E1,6.2920887E1,6.695338E1,1.0399683E2,1.5247075E1,6.922019E1,9.8341286E1,6.219106E1,5.082786E1,2.1907837E1,1.09622665E2,3.9366024E0,6.3262E1,2.8529642E1,2.2518655E2,2.6444378E1,8.324584E0,9.471608E1,5.089567E1,1.2025215E1,3.3740295E1,3.3213078E1,2.055421E0,1.01941414E2,1.287302E1,5.6347176E1],"tree_param":{"num_deleted":"0","num_feature":"4","num_nodes":"49","size_leaf_vector":"1"}},{"base_weights":[6.422031E-4,7.661518E-1,-5.619811E-1,3.9238194E-1,1.0322222E0,-2.3662333E-1,-8.637977E-1,3.0583274E-1,7.7518946E-1,8.076227E-1,1.1020779E-1,-4.0750626E-1,-4.2546105E-2,-7.7589935E-1,-1.0757413E-1,1.1909162E-1,3.6797363E-1,8.0629575E-1,1.232695E-1,1.0537241E-1,7.032336E-1,-2.984278E-1,-8.188755E-1,6.4028904E-2,-1.9847383E-1,-8.806334E-1,-6.245265E-1,-3.503718E-2,2.196902E-2,2.845764E-2,5.2163143E-2,4.804314E-2,8.478381E-2,3.444248E-2,-1.910612E-2,6.211775E-2,8.547195E-2,-2.0033097E-2,-3.8644712E-2,-5.1736105E-2,-9.04183E-2,4.126875E-2,3.6525314E-3,-2.4080945E-2,4.2664524E-2,-7.94343E-2,-9.855446E-2,-6.762228E-2,-3.4338485E-2],"categories":[],"categories_nodes":[],"categories_segments":[],"categories_sizes":[],"default_left":[0,0,0,0,0,0,0,0,0,0,0,0,0,0,0,0,0,0,0,0,0,0,0,0,0,0,0,0,0,0,0,0,0,0,0,0,0,0,0,0,0,0,0,0,0,0,0,0,0],"id":16,"left_children":[1,3,5,7,9,11,13,15,17,19,-1,21,23,25,-1,27,29,31,33,-1,35,37,39,41,43,45,47,-1,-1,-1,-1,-1,-1,-1,-1,-1,-1,-1,-1,-1,-1,-1,-1,-1,-1,-1,-1,-1,-1],"loss_changes":[6.746436E2,6.558569E1,8.845398E1,8.958565E0,5.1819763E0,1.4437662E1,7.8837585E0,2.6021824E0,9.2526054E-1,1.713871E0,0E0,1.0150669E1,3.422646E0,4.7513733E0,0E0,2.8355517E0,2.0378551E0,2.4308395E-1,3.078343E-1,0E0,3.4047318E-1,1.51721E0,7.663193E-1,1.1609955E0,2.3139386E0,9.8428345E-1,1.8052483E0,0E0,0E0,0E0,0E0,0E0,0E0,0E0,0E0,0E0,0E0,0E0,0E0,0E0,0E0,0E0,0E0,0E0,0E0,0E0,0E0,0E0,0E0],"parents":[2147483647,0,0,1,1,2,2,3,3,4,4,5,5,6,6,7,7,8,8,9,9,11,11,12,12,13,13,15,15,16,16,17,17,18,18,20,20,21,21,22,22,23,23,24,24,25,25,26,26],"right_children":[2,4,6,8,10,12,14,16,18,20,-1,22,24,26,-1,28,30,32,34,-1,36,38,40,42,44,46,48,-1,-1,-1,-1,-1,-1,-1,-1,-1,-1,-1,-1,-1,-1,-1,-1,-1,-1,-1,-1,-1,-1],"split_conditions":[4.4072032E-1,9.045511E-1,8.795615E-1,9.2128503E-1,9.636287E-1,3.2075128E-1,9.948303E-1,4.179551E-1,3.842296E-1,1.20152235E-2,1.1020779E-1,9.171992E-1,6.822633E-1,7.132887E-2,-1.0757413E-1,6.314535E-1,8.0174404E-1,1.1369158E-1,4.7855012E-2,1.0537241E-1,6.752692E-2,7.6190317E-1,1.4936498E-1,3.3712557E-1,9.651619E-1,9.679634E-1,2.6917315E-1,-3.503718E-2,2.196902E-2,2.845764E-2,5.2163143E-2,4.804314E-2,8.478381E-2,3.444248E-2,-1.910612E-2,6.211775E-2,8.547195E-2,-2.0033097E-2,-3.8644712E-2,-5.1736105E-2,-9.04183E-2,4.126875E-2,3.6525314E-3,-2.4080945E-2,4.2664524E-2,-7.94343E-2,-9.855446E-2,-6.762228E-2,-3.4338485E-2],"split_indices":[0,1,0,3,3,1,0,3,0,0,0,2,2,3,0,2,1,0,2,0,0,2,1,3,2,2,3,0,0,0,0,0,0,0,0,0,0,0,0,0,0,0,0,0,0,0,0,0,0],"split_type":[0,0,0,0,0,0,0,0,0,0,0,0,0,0,0,0,0,0,0,0,0,0,0,0,0,0,0,0,0,0,0,0,0,0,0,0,0,0,0,0,0,0,0,0,0,0,0,0,0],"sum_hessian":[1.5644125E3,6.6256274E2,9.0184973E2,2.7654834E2,3.8601443E2,4.3485782E2,4.6699194E2,2.2702013E2,4.95282E1,9.455698E1,2.9145746E2,2.3066235E2,2.0419547E2,3.333883E2,1.3360362E2,5.7410603E1,1.6960953E2,4.7046574E1,2.4816217E0,2.545399E1,6.910299E1,1.8368262E2,4.6979744E1,1.2164304E2,8.2552414E1,1.9420282E2,1.391855E2,9.693072E0,4.771753E1,1.1178864E2,5.782088E1,6.7402077E0,4.0306366E1,1.4005142E0,1.0811075E0,4.8131794E1,2.0971195E1,8.841775E1,9.526487E1,1.1918652E1,3.5061092E1,7.870108E0,1.13772934E2,7.789203E1,4.6603894E0,1.1126109E2,8.294173E1,1.1638023E2,2.2805267E1],"tree_param":{"num_deleted":"0","num_feature":"4","num_nodes":"49","size_leaf_vector":"1"}},{"base_weights":[7.958009E-4,-5.009503E-1,7.757596E-1,-1.7587289E-1,-8.218177E-1,4.2311063E-1,1.0314575E0,-1.5960371E-2,-3.755513E-1,-6.94103E-1,-9.912127E-1,2.707919E-1,6.657592E-1,1.0911446E-1,8.072855E-1,-1.2879561E-1,1.16397254E-1,-2.4454859E-1,-5.4787296E-1,-6.367066E-1,-1.0450896E-1,-8.963062E-1,-1.0629344E-1,-1.6832346E-2,2.939198E-1,9.153106E-2,5.8250386E-1,9.570881E-2,6.550093E-1,-4.5700368E-2,-7.297796E-3,2.631296E-2,3.093853E-3,-2.152333E-2,-8.649866E-2,-4.2474974E-2,-8.145131E-2,-6.7119025E-2,-3.4525152E-2,-5.1818278E-2,-9.2426516E-2,3.9512288E-2,-1.1797772E-2,6.324696E-2,2.4301147E-2,1.7745465E-2,6.431038E-2,5.24255E-2,1.0330844E-1],"categories":[],"categories_nodes":[],"categories_segments":[],"categories_sizes":[],"default_left":[0,0,0,0,0,0,0,0,0,0,0,0,0,0,0,0,0,0,0,0,0,0,0,0,0,0,0,0,0,0,0,0,0,0,0,0,0,0,0,0,0,0,0,0,0,0,0,0,0],"id":17,"left_children":[1,3,5,7,9,11,13,15,17,19,21,23,25,-1,27,29,31,33,35,37,-1,39,-1,41,43,-1,45,-1,47,-1,-1,-1,-1,-1,-1,-1,-1,-1,-1,-1,-1,-1,-1,-1,-1,-1,-1,-1,-1],"loss_changes":[5.810556E2,9.446924E1,5.251938E1,1.4422145E1,9.181946E0,9.005657E0,3.664917E0,3.7778401E0,4.4011993E0,4.641815E0,3.6627197E-1,1.0318727E0,1.4439735E0,0E0,1.0903664E0,2.4669836E0,1.4523714E0,1.922545E0,2.4760437E0,2.0696106E0,0E0,4.7026062E-1,0E0,5.6476134E-1,2.3098698E0,0E0,1.7049046E0,0E0,1.4605484E0,0E0,0E0,0E0,0E0,0E0,0E0,0E0,0E0,0E0,0E0,0E0,0E0,0E0,0E0,0E0,0E0,0E0,0E0,0E0,0E0],"parents":[2147483647,0,0,1,1,2,2,3,3,4,4,5,5,6,6,7,7,8,8,9,9,10,10,11,11,12,12,14,14,15,15,16,16,17,17,18,18,19,19,21,21,23,23,24,24,26,26,28,28],"right_children":[2,4,6,8,10,12,14,16,18,20,22,24,26,-1,28,30,32,34,36,38,-1,40,-1,42,44,-1,46,-1,48,-1,-1,-1,-1,-1,-1,-1,-1,-1,-1,-1,-1,-1,-1,-1,-1,-1,-1,-1,-1],"split_conditions":[6.157704E-1,8.663243E-1,9.2128503E-1,7.4712E-1,9.614777E-1,8.463865E-1,4.255579E-2,4.219481E-1,7.563976E-1,9.9438184E-1,9.7711074E-1,1.22573644E-1,2.4341399E-2,1.0911446E-1,2.4420362E-2,3.442429E-1,3.8775828E-1,9.7568655E-1,9.2505187E-1,2.6917315E-1,-1.0450896E-1,9.109817E-1,-1.0629344E-1,1.678978E-1,1.6898838E-1,9.153106E-2,4.0099878E-2,9.570881E-2,6.377647E-2,-4.5700368E-2,-7.297796E-3,2.631296E-2,3.093853E-3,-2.152333E-2,-8.649866E-2,-4.2474974E-2,-8.145131E-2,-6.7119025E-2,-3.4525152E-2,-5.1818278E-2,-9.2426516E-2,3.9512288E-2,-1.1797772E-2,6.324696E-2,2.4301147E-2,1.7745465E-2,6.431038E-2,5.24255E-2,1.0330844E-1],"split_indices":[1,0,3,2,2,1,0,1,0,0,2,2,0,0,2,2,2,2,2,3,0,0,0,0,2,0,0,0,2,0,0,0,0,0,0,0,0,0,0,0,0,0,0,0,0,0,0,0,0],"split_type":[0,0,0,0,0,0,0,0,0,0,0,0,0,0,0,0,0,0,0,0,0,0,0,0,0,0,0,0,0,0,0,0,0,0,0,0,0,0,0,0,0,0,0,0,0,0,0,0,0],"sum_hessian":[1.4923503E3,9.060723E2,5.86278E2,4.508525E2,4.5521982E2,2.4753784E2,3.3874014E2,2.5095503E2,1.9989748E2,2.6244666E2,1.9277316E2,1.5337508E2,9.4162766E1,2.6445908E2,7.4281075E1,1.3548264E2,1.154724E2,1.1493812E2,8.495936E1,2.279795E2,3.4467136E1,8.8784805E1,1.0398836E2,1.1435287E1,1.4193979E2,2.1055758E1,7.310701E1,3.478042E1,3.9500656E1,1.864754E1,1.168351E2,4.1734825E1,7.373757E1,1.1103853E2,3.8995914E0,5.989523E1,2.506413E1,2.0269473E2,2.5284777E1,7.4577756E0,8.1327034E1,1.681247E0,9.75404E0,1.706052E1,1.2487927E2,1.0025432E1,6.308158E1,3.112348E1,8.377174E0],"tree_param":{"num_deleted":"0","num_feature":"4","num_nodes":"49","size_leaf_vector":"1"}},{"base_weights":[8.9066866E-4,-4.7043222E-1,7.4405986E-1,-1.726571E-1,-8.058946E-1,3.924072E-1,1.0142608E0,-3.5176113E-1,-9.605398E-3,-7.1118903E-1,-1.0473267E-1,2.4770665E-1,6.308136E-1,1.0794654E-1,7.7690905E-1,-2.5147563E-1,-7.6063544E-1,-1.5944277E-1,8.272078E-2,-8.257651E-1,-5.5337155E-1,-2.73911E-1,2.579246E-1,9.3379155E-2,5.5768853E-1,9.3283765E-2,6.227417E-1,-2.6611004E-2,1.7160054E-2,-9.1981605E-2,-5.4829E-2,-2.703664E-2,8.031626E-3,3.915031E-2,5.9600887E-3,-7.336184E-2,-9.424452E-2,-2.119753E-3,-5.8020443E-2,-3.6971714E-2,-7.528366E-3,3.434297E-2,1.8818635E-2,8.198316E-2,4.6060126E-2,4.9269047E-2,1.01097405E-1],"categories":[],"categories_nodes":[],"categories_segments":[],"categories_sizes":[],"default_left":[0,0,0,0,0,0,0,0,0,0,0,0,0,0,0,0,0,0,0,0,0,0,0,0,0,0,0,0,0,0,0,0,0,0,0,0,0,0,0,0,0,0,0,0,0,0,0],"id":18,"left_children":[1,3,5,7,9,11,13,15,17,19,-1,21,23,-1,25,27,29,31,33,35,37,39,41,-1,43,-1,45,-1,-1,-1,-1,-1,-1,-1,-1,-1,-1,-1,-1,-1,-1,-1,-1,-1,-1,-1,-1],"loss_changes":[5.0014014E2,8.714014E1,5.2253357E1,1.3550991E1,8.643402E0,8.206081E0,4.0011597E0,8.876961E0,3.3884635E0,4.9319916E0,0E0,8.834181E-1,1.4933739E0,0E0,1.1249771E0,1.1544876E0,9.513321E-1,2.5046835E0,1.0591055E0,1.1432419E0,1.8210716E0,3.7148386E-2,8.302889E-1,0E0,1.5494499E0,0E0,1.4554367E0,0E0,0E0,0E0,0E0,0E0,0E0,0E0,0E0,0E0,0E0,0E0,0E0,0E0,0E0,0E0,0E0,0E0,0E0,0E0,0E0],"parents":[2147483647,0,0,1,1,2,2,3,3,4,4,5,5,6,6,7,7,8,8,9,9,11,11,12,12,14,14,15,15,16,16,17,17,18,18,19,19,20,20,21,21,22,22,24,24,26,26],"right_children":[2,4,6,8,10,12,14,16,18,20,-1,22,24,-1,26,28,30,32,34,36,38,40,42,-1,44,-1,46,-1,-1,-1,-1,-1,-1,-1,-1,-1,-1,-1,-1,-1,-1,-1,-1,-1,-1,-1,-1],"split_conditions":[6.157704E-1,8.795615E-1,9.2128503E-1,3.2075128E-1,9.948303E-1,8.463865E-1,4.255579E-2,9.171992E-1,3.177367E-1,7.132887E-2,-1.0473267E-1,8.581094E-2,1.740457E-2,1.0794654E-1,2.4420362E-2,9.1001207E-1,8.2151884E-1,8.915145E-1,3.3712557E-1,9.679634E-1,7.494814E-2,2.1901764E-1,3.2679126E-1,9.3379155E-2,1.2952185E-1,9.3283765E-2,6.377647E-2,-2.6611004E-2,1.7160054E-2,-9.1981605E-2,-5.4829E-2,-2.703664E-2,8.031626E-3,3.915031E-2,5.9600887E-3,-7.336184E-2,-9.424452E-2,-2.119753E-3,-5.8020443E-2,-3.6971714E-2,-7.528366E-3,3.434297E-2,1.8818635E-2,8.198316E-2,4.6060126E-2,4.9269047E-2,1.01097405E-1],"split_indices":[1,0,3,1,0,1,0,2,3,3,0,2,0,0,2,2,0,2,3,2,3,0,2,0,2,0,2,0,0,0,0,0,0,0,0,0,0,0,0,0,0,0,0,0,0,0,0],"split_type":[0,0,0,0,0,0,0,0,0,0,0,0,0,0,0,0,0,0,0,0,0,0,0,0,0,0,0,0,0,0,0,0,0,0,0,0,0,0,0,0,0,0,0,0,0,0,0],"sum_hessian":[1.4258601E3,8.727336E2,5.531265E2,4.6313968E2,4.0959393E2,2.4140393E2,3.117226E2,2.2015414E2,2.4298553E2,2.9702634E2,1.12567604E2,1.5149387E2,8.9910065E1,2.4175926E2,6.996333E1,1.7808893E2,4.2065216E1,9.236241E1,1.5062312E2,1.6963692E2,1.2738941E2,2.4147651E0,1.490791E2,1.5192676E1,7.4717384E1,3.227192E1,3.7691414E1,1.7249332E2,5.595614E0,2.2138113E1,1.9927101E1,6.306019E1,2.9302225E1,9.382306E0,1.4124081E2,9.885488E1,7.078203E1,6.2007484E0,1.2118866E2,1.04794E0,1.3668251E0,6.520615E1,8.387295E1,1.818155E1,5.653584E1,2.9933321E1,7.758093E0],"tree_param":{"num_deleted":"0","num_feature":"4","num_nodes":"47","size_leaf_vector":"1"}},{"base_weights":[1.0940817E-3,-4.4077796E-1,7.128022E-1,-1.5770388E-1,-7.769962E-1,3.6338195E-1,9.976775E-1,-1.3247125E-2,-3.3432987E-1,-6.793199E-1,-1.0341724E-1,2.2584054E-1,5.974845E-1,1.06887095E-1,7.4698406E-1,8.8772126E-2,-1.21775955E-1,-2.0404722E-1,-4.8787582E-1,-7.9816014E-1,-5.1999503E-1,-3.389191E-2,2.4717678E-1,9.455934E-2,5.307336E-1,9.0902396E-2,5.913335E-1,-5.7773598E-2,9.872233E-3,5.8357883E-2,-1.5863119E-2,-1.764716E-2,-8.180233E-2,-3.672021E-2,-7.088605E-2,-7.027294E-2,-9.214556E-2,-5.7414174E-2,-2.4485337E-2,3.6771223E-2,-1.2912117E-2,5.7037212E-2,2.000901E-2,7.989913E-2,4.3482732E-2,4.6221435E-2,9.900272E-2],"categories":[],"categories_nodes":[],"categories_segments":[],"categories_sizes":[],"default_left":[0,0,0,0,0,0,0,0,0,0,0,0,0,0,0,0,0,0,0,0,0,0,0,0,0,0,0,0,0,0,0,0,0,0,0,0,0,0,0,0,0,0,0,0,0,0,0],"id":19,"left_children":[1,3,5,7,9,11,13,15,17,19,-1,21,23,-1,25,27,29,31,33,35,37,39,41,-1,43,-1,45,-1,-1,-1,-1,-1,-1,-1,-1,-1,-1,-1,-1,-1,-1,-1,-1,-1,-1,-1,-1],"loss_changes":[4.2977228E2,8.012215E1,5.1743866E1,1.17067795E1,8.972061E0,7.485626E0,4.338043E0,2.8179333E0,4.0306225E0,4.92511E0,0E0,8.4345865E-1,1.51931E0,0E0,1.151638E0,9.27564E-1,3.29707E0,1.7757912E0,2.2477875E0,1.2312012E0,1.6972923E0,5.185928E-1,2.0068598E0,0E0,1.5889931E0,0E0,1.4482279E0,0E0,0E0,0E0,0E0,0E0,0E0,0E0,0E0,0E0,0E0,0E0,0E0,0E0,0E0,0E0,0E0,0E0,0E0,0E0,0E0],"parents":[2147483647,0,0,1,1,2,2,3,3,4,4,5,5,6,6,7,7,8,8,9,9,11,11,12,12,14,14,15,15,16,16,17,17,18,18,19,19,20,20,21,21,22,22,24,24,26,26],"right_children":[2,4,6,8,10,12,14,16,18,20,-1,22,24,-1,26,28,30,32,34,36,38,40,42,-1,44,-1,46,-1,-1,-1,-1,-1,-1,-1,-1,-1,-1,-1,-1,-1,-1,-1,-1,-1,-1,-1,-1],"split_conditions":[6.157704E-1,8.795615E-1,9.2128503E-1,7.4712E-1,9.948303E-1,8.463865E-1,4.255579E-2,6.071229E-1,7.563976E-1,7.132887E-2,-1.0341724E-1,1.22573644E-1,1.20152235E-2,1.06887095E-1,2.4420362E-2,6.845628E-3,1.3652173E-1,9.7568655E-1,9.171992E-1,9.679634E-1,2.6917315E-1,1.678978E-1,1.6898838E-1,9.455934E-2,1.2952185E-1,9.0902396E-2,6.377647E-2,-5.7773598E-2,9.872233E-3,5.8357883E-2,-1.5863119E-2,-1.764716E-2,-8.180233E-2,-3.672021E-2,-7.088605E-2,-7.027294E-2,-9.214556E-2,-5.7414174E-2,-2.4485337E-2,3.6771223E-2,-1.2912117E-2,5.7037212E-2,2.000901E-2,7.989913E-2,4.3482732E-2,4.6221435E-2,9.900272E-2],"split_indices":[1,0,3,2,0,1,0,0,0,3,0,2,0,0,2,2,2,2,2,2,3,0,2,0,2,0,2,0,0,0,0,0,0,0,0,0,0,0,0,0,0,0,0,0,0,0,0],"split_type":[0,0,0,0,0,0,0,0,0,0,0,0,0,0,0,0,0,0,0,0,0,0,0,0,0,0,0,0,0,0,0,0,0,0,0,0,0,0,0,0,0,0,0,0,0,0,0],"sum_hessian":[1.3645963E3,8.421307E2,5.224657E2,4.5799634E2,3.8413434E2,2.3567224E2,2.8679346E2,2.5253284E2,2.054635E2,2.8103705E2,1.0309728E2,1.4969008E2,8.598216E1,2.2081999E2,6.597348E1,1.3026407E2,1.2226876E2,1.1241178E2,9.305172E1,1.5867322E2,1.2236382E2,1.1318472E1,1.383716E2,1.1716119E1,7.4266045E1,2.9951918E1,3.6021564E1,1.0767366E0,1.2918733E2,5.3347697E0,1.1693399E2,1.0881211E2,3.5996745E0,6.190742E1,3.1144302E1,9.3220245E1,6.545298E1,1.01334854E2,2.1028967E1,1.6209995E0,9.697473E0,1.6182735E1,1.22188866E2,1.7628033E1,5.663801E1,2.8840675E1,7.18089E0],"tree_param":{"num_deleted":"0","num_feature":"4","num_nodes":"47","size_leaf_vector":"1"}},{"base_weights":[1.2853828E-3,-3.8789472E-1,7.252122E-1,-1.21768154E-1,-7.483227E-1,4.071785E-1,1.0133657E0,5.9511963E-2,-2.5929555E-1,-6.4799577E-1,-1.0216435E-1,8.677264E-1,3.3557177E-1,7.633609E-1,1.0592582E-1,3.522307E-2,6.773394E-1,-1.7649661E-1,-6.6845524E-1,-7.7054864E-1,-4.8809958E-1,6.062857E-1,1.0336218E-1,5.1570743E-1,2.4707595E-1,3.1768548E-1,8.237315E-1,1.3585272E-2,-1.0247095E-2,9.629985E-2,-2.7531886E-2,-6.972419E-2,-1.4139158E-2,3.6523458E-2,-7.280367E-2,-6.720472E-2,-9.005285E-2,3.0075277E-3,-5.1562548E-2,8.951424E-2,-9.059069E-3,2.7213126E-4,6.0129303E-2,-4.8272114E-2,3.4721807E-2,8.498191E-2,-5.754896E-2,8.999213E-2,3.6528572E-2],"categories":[],"categories_nodes":[],"categories_segments":[],"categories_sizes":[],"default_left":[0,0,0,0,0,0,0,0,0,0,0,0,0,0,0,0,0,0,0,0,0,0,0,0,0,0,0,0,0,0,0,0,0,0,0,0,0,0,0,0,0,0,0,0,0,0,0,0,0],"id":20,"left_children":[1,3,5,7,9,11,13,15,17,19,-1,21,23,25,-1,27,29,31,33,35,37,39,-1,41,43,45,47,-1,-1,-1,-1,-1,-1,-1,-1,-1,-1,-1,-1,-1,-1,-1,-1,-1,-1,-1,-1,-1,-1],"loss_changes":[3.6909308E2,8.163414E1,4.1563385E1,1.2264569E1,9.256241E0,6.9443626E0,1.9408417E0,3.1688933E0,9.353012E0,4.8620834E0,0E0,6.2644005E-1,2.9255047E0,8.3462715E-1,0E0,2.8650494E0,2.440332E0,4.176725E0,3.1416512E0,1.310173E0,1.7087517E0,2.8257775E0,0E0,2.72789E0,9.693357E0,3.5731082E0,9.0278625E-1,0E0,0E0,0E0,0E0,0E0,0E0,0E0,0E0,0E0,0E0,0E0,0E0,0E0,0E0,0E0,0E0,0E0,0E0,0E0,0E0,0E0,0E0],"parents":[2147483647,0,0,1,1,2,2,3,3,4,4,5,5,6,6,7,7,8,8,9,9,11,11,12,12,13,13,15,15,16,16,17,17,18,18,19,19,20,20,21,21,23,23,24,24,25,25,26,26],"right_children":[2,4,6,8,10,12,14,16,18,20,-1,22,24,26,-1,28,30,32,34,36,38,40,-1,42,44,46,48,-1,-1,-1,-1,-1,-1,-1,-1,-1,-1,-1,-1,-1,-1,-1,-1,-1,-1,-1,-1,-1,-1],"split_conditions":[6.7154485E-1,8.795615E-1,9.491006E-1,6.071229E-1,9.948303E-1,3.1342063E-2,9.462996E-1,9.522188E-1,9.171992E-1,7.132887E-2,-1.0216435E-1,8.238106E-1,1.6898838E-1,6.752692E-2,1.0592582E-1,6.0887563E-1,9.7422117E-1,6.240347E-1,6.312189E-1,9.679634E-1,7.494814E-2,7.654945E-1,1.0336218E-1,6.377647E-2,1.9610526E-1,2.5898907E-2,2.1901764E-1,1.3585272E-2,-1.0247095E-2,9.629985E-2,-2.7531886E-2,-6.972419E-2,-1.4139158E-2,3.6523458E-2,-7.280367E-2,-6.720472E-2,-9.005285E-2,3.0075277E-3,-5.1562548E-2,8.951424E-2,-9.059069E-3,2.7213126E-4,6.0129303E-2,-4.8272114E-2,3.4721807E-2,8.498191E-2,-5.754896E-2,8.999213E-2,3.6528572E-2],"split_indices":[1,0,3,0,0,0,1,2,2,3,0,3,2,0,0,2,2,0,0,2,3,3,0,2,2,2,0,0,0,0,0,0,0,0,0,0,0,0,0,0,0,0,0,0,0,0,0,0,0],"split_type":[0,0,0,0,0,0,0,0,0,0,0,0,0,0,0,0,0,0,0,0,0,0,0,0,0,0,0,0,0,0,0,0,0,0,0,0,0,0,0,0,0,0,0,0,0,0,0,0,0],"sum_hessian":[1.3080598E3,8.510195E2,4.570404E2,4.9032193E2,3.606975E2,2.1840306E2,2.3863734E2,2.117601E2,2.7856183E2,2.663135E2,9.438401E1,2.7892284E1,1.9051077E2,3.9746597E1,1.9889075E2,2.0476701E2,6.993077E0,2.3286903E2,4.56928E1,1.4859978E2,1.1771374E2,1.2634978E1,1.5257305E1,6.117002E1,1.2934074E2,5.4887886E0,3.425781E1,1.1831403E2,8.645299E1,5.3715405E0,1.621536E0,1.3515761E1,2.1935327E2,2.2106016E0,4.3482197E1,8.804663E1,6.055314E1,5.932978E0,1.1178076E2,8.731321E0,3.9036567E0,8.893804E0,5.227622E1,1.5145539E1,1.1419521E2,3.4699886E0,2.0187998E0,2.8550049E1,5.707759E0],"tree_param":{"num_deleted":"0","num_feature":"4","num_nodes":"49","size_leaf_vector":"1"}},{"base_weights":[1.5129198E-3,-3.2849085E-1,7.6552314E-1,-7.1636304E-2,-7.051262E-1,9.6546197E-1,3.6711615E-1,9.161227E-2,-2.2020227E-1,-6.0391486E-1,-1.0095861E-1,1.0509737E-1,6.954079E-1,8.7506086E-2,3.2465777E-1,5.66546E-1,7.967608E-2,-1.5220842E-1,-5.993399E-1,-5.0790566E-1,-8.326844E-1,8.83621E-1,5.591616E-1,3.5429406E-1,-1.4635815E-1,-9.235784E-3,9.343324E-2,-9.1435604E-2,8.925639E-3,4.8770204E-2,-1.696079E-2,3.1944692E-2,-7.1901254E-2,2.7792169E-2,-5.2055277E-2,-5.287061E-2,-8.601628E-2,9.1506176E-2,1.2746892E-2,-1.671463E-2,5.909377E-2,1.601157E-2,4.5275766E-2,3.868645E-2,-3.7671104E-2],"categories":[],"categories_nodes":[],"categories_segments":[],"categories_sizes":[],"default_left":[0,0,0,0,0,0,0,0,0,0,0,0,0,0,0,0,0,0,0,0,0,0,0,0,0,0,0,0,0,0,0,0,0,0,0,0,0,0,0,0,0,0,0,0,0],"id":21,"left_children":[1,3,5,7,9,11,13,15,17,19,-1,-1,21,-1,23,25,27,29,31,33,35,37,39,41,43,-1,-1,-1,-1,-1,-1,-1,-1,-1,-1,-1,-1,-1,-1,-1,-1,-1,-1,-1,-1],"loss_changes":[3.172734E2,8.496571E1,2.9882324E1,1.2719124E1,1.036676E1,5.0915833E0,2.4861965E0,1.3730967E0,6.983083E0,5.503517E0,0E0,0E0,1.1366367E0,0E0,1.7288294E0,1.5329823E0,2.4167686E0,2.688448E0,4.780656E0,2.0590668E0,1.9841766E-1,4.772377E-1,1.01299E0,2.094039E0,1.1061469E0,0E0,0E0,0E0,0E0,0E0,0E0,0E0,0E0,0E0,0E0,0E0,0E0,0E0,0E0,0E0,0E0,0E0,0E0,0E0,0E0],"parents":[2147483647,0,0,1,1,2,2,3,3,4,4,5,5,6,6,7,7,8,8,9,9,12,12,14,14,15,15,16,16,17,17,18,18,19,19,20,20,21,21,22,22,23,23,24,24],"right_children":[2,4,6,8,10,12,14,16,18,20,-1,-1,22,-1,24,26,28,30,32,34,36,38,40,42,44,-1,-1,-1,-1,-1,-1,-1,-1,-1,-1,-1,-1,-1,-1,-1,-1,-1,-1,-1,-1],"split_conditions":[7.4908805E-1,8.663243E-1,1.13944784E-1,5.885888E-1,9.948303E-1,4.255579E-2,1.20152235E-2,2.325884E-2,9.171992E-1,9.614777E-1,-1.0095861E-1,1.0509737E-1,2.5898907E-2,8.7506086E-2,7.74919E-1,5.080727E-3,3.075547E-2,1.3652173E-1,6.312189E-1,3.9442435E-2,9.109817E-1,2.1901764E-1,2.8060492E-2,1.9610526E-1,1.03125796E-1,-9.235784E-3,9.343324E-2,-9.1435604E-2,8.925639E-3,4.8770204E-2,-1.696079E-2,3.1944692E-2,-7.1901254E-2,2.7792169E-2,-5.2055277E-2,-5.287061E-2,-8.601628E-2,9.1506176E-2,1.2746892E-2,-1.671463E-2,5.909377E-2,1.601157E-2,4.5275766E-2,3.868645E-2,-3.7671104E-2],"split_indices":[1,0,2,0,0,0,0,2,2,2,0,0,2,0,2,2,2,2,0,3,0,0,2,2,0,0,0,0,0,0,0,0,0,0,0,0,0,0,0,0,0,0,0,0,0],"split_type":[0,0,0,0,0,0,0,0,0,0,0,0,0,0,0,0,0,0,0,0,0,0,0,0,0,0,0,0,0,0,0,0,0,0,0,0,0,0,0,0,0,0,0,0,0],"sum_hessian":[1.2563936E3,8.7780695E2,3.7858667E2,5.2259937E2,3.552076E2,2.5113322E2,1.2745345E2,2.4917833E2,2.73421E2,2.6882568E2,8.638193E1,1.8854076E2,6.2592457E1,8.319113E0,1.1913434E2,4.969772E0,2.4420856E2,2.330311E2,4.038991E1,1.9162526E2,7.720042E1,2.3980246E1,3.861221E1,1.1231528E2,6.8190646E0,2.048566E0,2.921206E0,1.4296554E0,2.427789E2,5.453014E0,2.2757808E2,4.462179E0,3.5927734E1,2.7029347E0,1.8892232E2,8.078057E0,6.912236E1,2.2821188E1,1.159058E0,1.4399114E0,3.71723E1,3.867369E1,7.364159E1,1.8521805E0,4.966884E0],"tree_param":{"num_deleted":"0","num_feature":"4","num_nodes":"45","size_leaf_vector":"1"}},{"base_weights":[1.7078777E-3,-2.9865077E-1,7.5501275E-1,-6.7802005E-2,-6.9081265E-1,4.2726287E-1,9.9913055E-1,8.823011E-2,-2.0988941E-1,-5.862488E-1,-9.9786244E-2,8.2178086E-1,3.4336424E-1,7.4087787E-1,1.0421337E-1,5.965311E-1,7.5024016E-2,-1.446974E-1,-5.609295E-1,-7.1765554E-1,-4.2262363E-1,5.452268E-1,1.0087428E-1,-2.3467757E-1,3.723541E-1,2.5075972E-1,8.2414114E-1,2.275633E-4,9.253647E-2,-5.4725774E-2,8.865393E-3,4.088595E-2,-1.5952064E-2,2.8986907E-2,-6.645628E-2,-5.062139E-2,-7.912769E-2,-3.5942364E-2,-7.445402E-2,8.548174E-2,-1.33030405E-2,6.468375E-2,-6.1826285E-2,5.9667654E-2,2.8708387E-2,8.089956E-2,-5.664545E-2,8.751129E-2,2.9797671E-2],"categories":[],"categories_nodes":[],"categories_segments":[],"categories_sizes":[],"default_left":[0,0,0,0,0,0,0,0,0,0,0,0,0,0,0,0,0,0,0,0,0,0,0,0,0,0,0,0,0,0,0,0,0,0,0,0,0,0,0,0,0,0,0,0,0,0,0,0,0],"id":22,"left_children":[1,3,5,7,9,11,13,15,17,19,-1,21,23,25,-1,27,29,31,33,35,37,39,-1,41,43,45,47,-1,-1,-1,-1,-1,-1,-1,-1,-1,-1,-1,-1,-1,-1,-1,-1,-1,-1,-1,-1,-1,-1],"loss_changes":[2.7400336E2,7.833381E1,2.719313E1,1.2125564E1,9.711517E0,4.653282E0,1.4168396E0,1.707118E0,6.466592E0,4.8926697E0,0E0,7.649288E-1,2.1766586E0,1.0826759E0,0E0,1.2612116E0,2.2157028E0,2.0562916E0,4.113159E0,1.6634293E0,1.9717007E0,2.724657E0,0E0,2.6206682E0,2.1070538E0,3.2070007E0,4.5181084E-1,0E0,0E0,0E0,0E0,0E0,0E0,0E0,0E0,0E0,0E0,0E0,0E0,0E0,0E0,0E0,0E0,0E0,0E0,0E0,0E0,0E0,0E0],"parents":[2147483647,0,0,1,1,2,2,3,3,4,4,5,5,6,6,7,7,8,8,9,9,11,11,12,12,13,13,15,15,16,16,17,17,18,18,19,19,20,20,21,21,23,23,24,24,25,25,26,26],"right_children":[2,4,6,8,10,12,14,16,18,20,-1,22,24,26,-1,28,30,32,34,36,38,40,-1,42,44,46,48,-1,-1,-1,-1,-1,-1,-1,-1,-1,-1,-1,-1,-1,-1,-1,-1,-1,-1,-1,-1,-1,-1],"split_conditions":[7.6574856E-1,8.795615E-1,9.491006E-1,5.885888E-1,9.948303E-1,3.1342063E-2,9.462996E-1,2.325884E-2,9.171992E-1,7.132887E-2,-9.9786244E-2,8.238106E-1,4.0099878E-2,6.752692E-2,1.0421337E-1,5.080727E-3,2.4375713E-1,1.3652173E-1,6.312189E-1,1.5642375E-2,9.779495E-1,7.654945E-1,1.0087428E-1,1.2952185E-1,9.544893E-2,2.5898907E-2,1.9825593E-1,2.275633E-4,9.253647E-2,-5.4725774E-2,8.865393E-3,4.088595E-2,-1.5952064E-2,2.8986907E-2,-6.645628E-2,-5.062139E-2,-7.912769E-2,-3.5942364E-2,-7.445402E-2,8.548174E-2,-1.33030405E-2,6.468375E-2,-6.1826285E-2,5.9667654E-2,2.8708387E-2,8.089956E-2,-5.664545E-2,8.751129E-2,2.9797671E-2],"split_indices":[1,0,3,0,0,0,1,2,2,3,0,3,0,0,0,2,0,2,0,1,0,3,0,2,0,2,0,0,0,0,0,0,0,0,0,0,0,0,0,0,0,0,0,0,0,0,0,0,0],"split_type":[0,0,0,0,0,0,0,0,0,0,0,0,0,0,0,0,0,0,0,0,0,0,0,0,0,0,0,0,0,0,0,0,0,0,0,0,0,0,0,0,0,0,0,0,0,0,0,0,0],"sum_hessian":[1.2090059E3,8.647966E2,3.4420923E2,5.450954E2,3.197012E2,1.481094E2,1.9609982E2,2.5997977E2,2.851156E2,2.4065648E2,7.904475E1,2.4431206E1,1.2367819E2,3.0594578E1,1.6550525E2,5.464919E0,2.5451485E2,2.4165062E2,4.346499E1,1.3159059E2,1.0906588E2,1.1434113E1,1.2997094E1,5.5676284E0,1.18110565E2,5.0253234E0,2.5569256E1,2.3054745E0,3.1594448E0,4.6160293E0,2.4989882E2,5.6089334E0,2.3604169E2,4.524349E0,3.894064E1,3.6019085E1,9.557151E1,9.2936676E1,1.6129206E1,7.67194E0,3.7621727E0,1.480047E0,4.087581E0,3.0878992E1,8.7231575E1,2.9917364E0,2.0335867E0,2.2706396E1,2.8628597E0],"tree_param":{"num_deleted":"0","num_feature":"4","num_nodes":"49","size_leaf_vector":"1"}},{"base_weights":[1.967415E-3,-2.6207855E-1,7.7217066E-1,-7.0752434E-2,-7.099874E-1,4.364744E-1,9.968448E-1,-2.6275694E-1,5.732636E-2,-6.087259E-1,-1.02191426E-1,7.98366E-1,3.442837E-1,7.487927E-1,1.0344081E-1,-1.329564E-1,-5.207233E-1,3.0134267E-1,1.9553166E-2,-5.3957313E-1,-9.163031E-2,5.187871E-1,9.949067E-2,-2.0654602E-1,3.8013196E-1,2.3576935E-1,8.522759E-2,3.2393154E-2,-1.5336017E-2,-3.647619E-2,-6.1915495E-2,5.0045427E-2,8.678986E-3,2.711959E-3,-7.928972E-2,3.572024E-2,-5.4753523E-2,8.3230756E-2,-1.215411E-2,6.2938794E-2,-5.48647E-2,-1.0869651E-2,4.1316073E-2,7.9014E-2,-5.12182E-2],"categories":[],"categories_nodes":[],"categories_segments":[],"categories_sizes":[],"default_left":[0,0,0,0,0,0,0,0,0,0,0,0,0,0,0,0,0,0,0,0,0,0,0,0,0,0,0,0,0,0,0,0,0,0,0,0,0,0,0,0,0,0,0,0,0],"id":23,"left_children":[1,3,5,7,9,11,13,15,17,19,-1,21,23,25,-1,27,29,31,33,35,-1,37,-1,39,41,43,-1,-1,-1,-1,-1,-1,-1,-1,-1,-1,-1,-1,-1,-1,-1,-1,-1,-1,-1],"loss_changes":[2.3750543E2,7.4480515E1,2.2052414E1,1.5028502E1,7.5965424E0,3.772768E0,8.824463E-1,8.116615E0,3.3772087E0,3.7361908E0,0E0,7.956505E-1,2.0224895E0,1.2329941E0,0E0,1.578327E0,1.0251579E0,2.0554523E0,1.9819388E0,1.3724556E0,0E0,2.4990633E0,0E0,2.250888E0,1.5429459E0,2.857781E0,0E0,0E0,0E0,0E0,0E0,0E0,0E0,0E0,0E0,0E0,0E0,0E0,0E0,0E0,0E0,0E0,0E0,0E0,0E0],"parents":[2147483647,0,0,1,1,2,2,3,3,4,4,5,5,6,6,7,7,8,8,9,9,11,11,12,12,13,13,15,15,16,16,17,17,18,18,19,19,21,21,23,23,24,24,25,25],"right_children":[2,4,6,8,10,12,14,16,18,20,-1,22,24,26,-1,28,30,32,34,36,-1,38,-1,40,42,44,-1,-1,-1,-1,-1,-1,-1,-1,-1,-1,-1,-1,-1,-1,-1,-1,-1,-1,-1],"split_conditions":[8.0174404E-1,9.0971684E-1,9.491006E-1,3.2075128E-1,9.970402E-1,3.1342063E-2,9.462996E-1,8.813043E-1,1.5505728E-1,9.7422117E-1,-1.02191426E-1,8.238106E-1,4.0099878E-2,6.752692E-2,1.0344081E-1,1.2657048E-1,9.171992E-1,3.381481E-1,9.7568655E-1,4.200371E-1,-9.163031E-2,7.654945E-1,9.949067E-2,1.2952185E-1,6.377647E-2,2.5898907E-2,8.522759E-2,3.2393154E-2,-1.5336017E-2,-3.647619E-2,-6.1915495E-2,5.0045427E-2,8.678986E-3,2.711959E-3,-7.928972E-2,3.572024E-2,-5.4753523E-2,8.3230756E-2,-1.215411E-2,6.2938794E-2,-5.48647E-2,-1.0869651E-2,4.1316073E-2,7.9014E-2,-5.12182E-2],"split_indices":[1,0,3,1,0,0,1,2,2,2,0,3,0,0,0,3,2,0,2,2,0,3,0,2,2,2,0,0,0,0,0,0,0,0,0,0,0,0,0,0,0,0,0,0,0],"split_type":[0,0,0,0,0,0,0,0,0,0,0,0,0,0,0,0,0,0,0,0,0,0,0,0,0,0,0,0,0,0,0,0,0,0,0,0,0,0,0,0,0,0,0,0,0],"sum_hessian":[1.1658593E3,8.687042E2,2.9715497E2,6.0950824E2,2.59196E2,1.2032077E2,1.7683421E2,2.4346913E2,3.6603912E2,1.9790211E2,6.1293888E1,2.2873127E1,9.744764E1,2.6009886E1,1.5082433E2,1.6297874E2,8.049038E1,4.813131E1,3.179078E2,1.638238E2,3.4078316E1,1.094437E1,1.1928757E1,5.6634645E0,9.178417E1,4.9161487E0,2.1093737E1,6.331251E0,1.5664749E2,3.2964714E1,4.7525665E1,2.4272833E1,2.3858477E1,3.1593213E2,1.9756848E0,1.0557067E0,1.627681E2,7.145798E0,3.798572E0,1.4007988E0,4.2626657E0,5.6640954E0,8.612008E1,2.791054E0,2.1250944E0],"tree_param":{"num_deleted":"0","num_feature":"4","num_nodes":"45","size_leaf_vector":"1"}},{"base_weights":[2.129154E-3,-2.427835E-1,7.463857E-1,-6.454637E-2,-6.8208915E-1,4.082316E-1,9.859668E-1,1.5474493E-2,-3.2615566E-1,-5.7871014E-1,-1.0135501E-1,7.7511966E-1,3.1833637E-1,7.2312987E-1,1.0271372E-1,-6.691182E-2,1.5732722E-1,1.964355E-2,-4.1533595E-1,-5.091358E-1,-8.9927666E-2,4.9320617E-1,9.8144315E-2,-1.8139125E-1,3.521228E-1,2.2226371E-1,8.293706E-2,-7.712332E-3,4.652977E-2,1.2783708E-2,1.0631551E-1,-5.046621E-2,2.6549786E-2,-2.958407E-2,-5.9736382E-2,3.3449356E-2,-5.1709842E-2,8.099699E-2,-1.1110343E-2,6.1244924E-2,-4.8872884E-2,5.4487802E-2,2.5373384E-2,7.715883E-2,-4.6403073E-2],"categories":[],"categories_nodes":[],"categories_segments":[],"categories_sizes":[],"default_left":[0,0,0,0,0,0,0,0,0,0,0,0,0,0,0,0,0,0,0,0,0,0,0,0,0,0,0,0,0,0,0,0,0,0,0,0,0,0,0,0,0,0,0,0,0],"id":24,"left_children":[1,3,5,7,9,11,13,15,17,19,-1,21,23,25,-1,27,29,31,33,35,-1,37,-1,39,41,43,-1,-1,-1,-1,-1,-1,-1,-1,-1,-1,-1,-1,-1,-1,-1,-1,-1,-1,-1],"loss_changes":[2.0568777E2,6.6436584E1,2.2232544E1,1.2672217E1,7.8069E0,3.6308098E0,1.0191956E0,5.436865E0,4.380378E0,3.7584686E0,0E0,8.2120705E-1,1.6868868E0,1.1688118E0,0E0,1.6359923E0,4.4290743E0,4.0039625E0,2.275875E0,1.2318954E0,0E0,2.2900724E0,0E0,1.9455726E0,1.5757961E0,2.5506983E0,0E0,0E0,0E0,0E0,0E0,0E0,0E0,0E0,0E0,0E0,0E0,0E0,0E0,0E0,0E0,0E0,0E0,0E0,0E0],"parents":[2147483647,0,0,1,1,2,2,3,3,4,4,5,5,6,6,7,7,8,8,9,9,11,11,12,12,13,13,15,15,16,16,17,17,18,18,19,19,21,21,23,23,24,24,25,25],"right_children":[2,4,6,8,10,12,14,16,18,20,-1,22,24,26,-1,28,30,32,34,36,-1,38,-1,40,42,44,-1,-1,-1,-1,-1,-1,-1,-1,-1,-1,-1,-1,-1,-1,-1,-1,-1,-1,-1],"split_conditions":[8.0174404E-1,9.0971684E-1,9.491006E-1,8.553507E-1,9.970402E-1,3.1342063E-2,9.462996E-1,5.4066324E-1,6.071229E-1,9.7422117E-1,-1.0135501E-1,8.238106E-1,4.0099878E-2,6.752692E-2,1.0271372E-1,9.0065736E-1,8.1810695E-1,8.94809E-1,9.286759E-1,4.200371E-1,-8.9927666E-2,7.654945E-1,9.8144315E-2,1.2952185E-1,9.544893E-2,2.5898907E-2,8.293706E-2,-7.712332E-3,4.652977E-2,1.2783708E-2,1.0631551E-1,-5.046621E-2,2.6549786E-2,-2.958407E-2,-5.9736382E-2,3.3449356E-2,-5.1709842E-2,8.099699E-2,-1.1110343E-2,6.1244924E-2,-4.8872884E-2,5.4487802E-2,2.5373384E-2,7.715883E-2,-4.6403073E-2],"split_indices":[1,0,3,2,0,0,1,1,0,2,0,3,0,0,0,0,2,2,2,2,0,3,0,2,0,2,0,0,0,0,0,0,0,0,0,0,0,0,0,0,0,0,0,0,0],"split_type":[0,0,0,0,0,0,0,0,0,0,0,0,0,0,0,0,0,0,0,0,0,0,0,0,0,0,0,0,0,0,0,0,0,0,0,0,0,0,0,0,0,0,0,0,0],"sum_hessian":[1.1264358E3,8.480437E2,2.7839212E2,6.0409454E2,2.4394914E2,1.1656777E2,1.6182436E2,4.6331647E2,1.4077806E2,1.8804572E2,5.5903427E1,2.14405E1,9.512727E1,2.442921E1,1.3739514E2,2.9342636E2,1.698901E2,2.902243E1,1.1175563E2,1.5663792E2,3.1407785E1,1.0493281E1,1.0947219E1,5.747566E0,8.937971E1,4.816093E0,1.9613117E1,2.8874136E2,4.684991E0,1.656387E2,4.2514076E0,8.928641E0,2.009379E1,6.905112E1,4.270451E1,1.0811737E0,1.5555676E2,6.6612835E0,3.8319979E0,1.3270618E0,4.4205046E0,2.8671326E1,6.070838E1,2.6059518E0,2.210141E0],"tree_param":{"num_deleted":"0","num_feature":"4","num_nodes":"45","size_leaf_vector":"1"}},{"base_weights":[2.4525144E-3,7.73899E-1,-2.0885685E-1,4.872405E-1,1.0224396E0,-4.4582948E-2,-6.540954E-1,2.5711164E-1,6.943825E-1,5.870389E-1,1.036487E-1,-1.6368236E-1,1.21660836E-1,-5.490308E-1,-1.0054513E-1,-7.747676E-2,4.268144E-1,8.67988E-1,5.7343435E-1,-2.1842381E-2,8.4927864E-2,-1.4560616E-1,-9.494404E-2,1.5093705E-1,-3.3479485E-1,-4.7935772E-1,-8.819776E-2,3.267801E-2,-5.5504918E-2,6.574692E-2,1.9876402E-2,9.899473E-2,3.509441E-2,4.2305153E-2,9.820169E-2,-1.4221035E-1,-1.3699791E-2,6.841561E-2,1.2855631E-2,-5.1554658E-2,1.2898877E-2,3.1330172E-2,-4.8728805E-2],"categories":[],"categories_nodes":[],"categories_segments":[],"categories_sizes":[],"default_left":[0,0,0,0,0,0,0,0,0,0,0,0,0,0,0,0,0,0,0,0,0,0,0,0,0,0,0,0,0,0,0,0,0,0,0,0,0,0,0,0,0,0,0],"id":25,"left_children":[1,3,5,7,9,11,13,15,17,19,-1,21,23,25,-1,27,29,31,33,-1,-1,35,-1,37,39,41,-1,-1,-1,-1,-1,-1,-1,-1,-1,-1,-1,-1,-1,-1,-1,-1,-1],"loss_changes":[1.7806409E2,1.623529E1,6.2686768E1,5.1118317E0,1.5539551E-1,1.2442877E1,7.9764023E0,3.1083696E0,7.163143E-1,1.4970901E0,0E0,5.059923E0,3.5578592E0,3.7539253E0,0E0,3.8635602E0,1.7676134E0,1.0269203E0,1.8594904E0,0E0,0E0,3.7492304E0,0E0,2.8636413E0,1.4186566E0,1.1023827E0,0E0,0E0,0E0,0E0,0E0,0E0,0E0,0E0,0E0,0E0,0E0,0E0,0E0,0E0,0E0,0E0,0E0],"parents":[2147483647,0,0,1,1,2,2,3,3,4,4,5,5,6,6,7,7,8,8,9,9,11,11,12,12,13,13,15,15,16,16,17,17,18,18,21,21,23,23,24,24,25,25],"right_children":[2,4,6,8,10,12,14,16,18,20,-1,22,24,26,-1,28,30,32,34,-1,-1,36,-1,38,40,42,-1,-1,-1,-1,-1,-1,-1,-1,-1,-1,-1,-1,-1,-1,-1,-1,-1],"split_conditions":[1.621285E-1,9.85E-1,9.0971684E-1,8.7047815E-1,8.0307835E-1,4.179551E-1,9.970402E-1,1.9610526E-1,2.325884E-2,2.242791E-1,1.036487E-1,9.7711074E-1,7.8656E-1,9.7422117E-1,-1.0054513E-1,1.6898838E-1,9.901139E-2,9.901139E-2,1.1369158E-1,-2.1842381E-2,8.4927864E-2,1.7424573E-1,-9.494404E-2,4.3191814E-1,8.6289126E-1,4.200371E-1,-8.819776E-2,3.267801E-2,-5.5504918E-2,6.574692E-2,1.9876402E-2,9.899473E-2,3.509441E-2,4.2305153E-2,9.820169E-2,-1.4221035E-1,-1.3699791E-2,6.841561E-2,1.2855631E-2,-5.1554658E-2,1.2898877E-2,3.1330172E-2,-4.8728805E-2],"split_indices":[0,1,0,3,3,3,0,2,2,2,0,2,0,2,0,2,0,0,0,0,0,0,0,3,0,2,0,0,0,0,0,0,0,0,0,0,0,0,0,0,0,0,0],"split_type":[0,0,0,0,0,0,0,0,0,0,0,0,0,0,0,0,0,0,0,0,0,0,0,0,0,0,0,0,0,0,0,0,0,0,0,0,0,0,0,0,0,0,0],"sum_hessian":[1.0903333E3,2.3386789E2,8.5646533E2,1.0998047E2,1.2388742E2,6.264371E2,2.3002826E2,5.3161163E1,5.681931E1,5.209452E0,1.1867796E2,3.6497745E2,2.6145963E2,1.790502E2,5.0978065E1,1.8072538E1,3.5088627E1,2.079468E1,3.6024628E1,1.3205376E0,3.8889146E0,3.5792868E2,7.048769E0,2.4632982E2,1.512981E1,1.5008324E2,2.8966959E1,9.958547E0,8.113992E0,1.6508547E1,1.8580078E1,1.608577E1,4.7089095E0,2.782045E1,8.204178E0,1.2976716E0,3.56631E2,8.731586E0,2.3759824E2,1.0806538E1,4.3232727E0,1.105232E0,1.48978E2],"tree_param":{"num_deleted":"0","num_feature":"4","num_nodes":"43","size_leaf_vector":"1"}},{"base_weights":[2.5826774E-3,-2.0792499E-1,6.9658273E-1,-6.4263694E-2,-6.568193E-1,3.6007592E-1,9.645613E-1,-2.2339232E-1,4.7822844E-2,-5.4514056E-1,-9.975324E-2,8.350091E-2,2.9300663E-1,6.750079E-1,1.0136852E0,-1.2237831E-1,-4.1700155E-1,2.6122817E-1,1.5571485E-2,-3.8593265E-1,-7.1138877E-1,1.679055E-1,4.1321182E-1,1.6248943E-1,7.903993E-2,1.0219443E-1,4.5018983E-1,3.8748708E-2,-1.4578012E-2,-3.6916792E-2,-9.103757E-2,7.970967E-3,4.711777E-2,2.2152872E-3,-7.1653925E-2,4.244918E-2,-4.2409245E-2,-4.7807302E-2,-8.672381E-2,4.061603E-2,-6.3697085E-2,5.4884713E-2,5.381066E-3,7.307597E-2,-4.6021644E-2,5.9417278E-2,7.870327E-3],"categories":[],"categories_nodes":[],"categories_segments":[],"categories_sizes":[],"default_left":[0,0,0,0,0,0,0,0,0,0,0,0,0,0,0,0,0,0,0,0,0,0,0,0,0,0,0,0,0,0,0,0,0,0,0,0,0,0,0,0,0,0,0,0,0,0,0],"id":26,"left_children":[1,3,5,7,9,11,13,15,17,19,-1,-1,21,23,25,27,29,31,33,35,37,39,41,43,-1,-1,45,-1,-1,-1,-1,-1,-1,-1,-1,-1,-1,-1,-1,-1,-1,-1,-1,-1,-1,-1,-1],"loss_changes":[1.549752E2,5.2447117E1,2.1915642E1,1.1028204E1,6.96064E0,3.2924194E0,1.2621536E0,4.9450436E0,2.4960222E0,3.7152824E0,0E0,0E0,1.4169903E0,1.2223978E0,7.513428E-2,2.0763955E0,1.721139E0,1.7774563E0,1.5414509E0,2.628931E0,2.223629E0,9.869864E0,2.3943415E0,2.2671041E0,0E0,0E0,1.3769203E-1,0E0,0E0,0E0,0E0,0E0,0E0,0E0,0E0,0E0,0E0,0E0,0E0,0E0,0E0,0E0,0E0,0E0,0E0,0E0,0E0],"parents":[2147483647,0,0,1,1,2,2,3,3,4,4,5,5,6,6,7,7,8,8,9,9,12,12,13,13,14,14,15,15,16,16,17,17,18,18,19,19,20,20,21,21,22,22,23,23,26,26],"right_children":[2,4,6,8,10,12,14,16,18,20,-1,-1,22,24,26,28,30,32,34,36,38,40,42,44,-1,-1,46,-1,-1,-1,-1,-1,-1,-1,-1,-1,-1,-1,-1,-1,-1,-1,-1,-1,-1,-1,-1],"split_conditions":[8.0174404E-1,9.27588E-1,9.491006E-1,3.2075128E-1,9.970402E-1,1.740457E-2,9.462996E-1,8.813043E-1,1.5505728E-1,9.50097E-1,-9.975324E-2,8.350091E-2,1.9610526E-1,6.752692E-2,3.9974537E-2,1.2657048E-1,9.7711074E-1,6.79955E-1,9.7568655E-1,5.2568633E-2,1.5642375E-2,1.6898838E-1,5.440606E-1,2.5898907E-2,7.903993E-2,1.0219443E-1,1.3414655E-2,3.8748708E-2,-1.4578012E-2,-3.6916792E-2,-9.103757E-2,7.970967E-3,4.711777E-2,2.2152872E-3,-7.1653925E-2,4.244918E-2,-4.2409245E-2,-4.7807302E-2,-8.672381E-2,4.061603E-2,-6.3697085E-2,5.4884713E-2,5.381066E-3,7.307597E-2,-4.6021644E-2,5.9417278E-2,7.870327E-3],"split_indices":[1,0,3,1,0,0,1,2,2,2,0,0,2,0,2,3,2,1,2,3,1,2,2,2,0,0,0,0,0,0,0,0,0,0,0,0,0,0,0,0,0,0,0,0,0,0,0],"split_type":[0,0,0,0,0,0,0,0,0,0,0,0,0,0,0,0,0,0,0,0,0,0,0,0,0,0,0,0,0,0,0,0,0,0,0,0,0,0,0,0,0,0,0,0,0,0,0],"sum_hessian":[1.0588118E3,8.1293005E2,2.4588173E2,6.1670636E2,1.9622365E2,1.100425E2,1.3583922E2,2.5445914E2,3.6224725E2,1.4974149E2,4.6482162E1,1.22001915E1,9.784231E1,2.184111E1,1.13998116E2,1.6828822E2,8.6170906E1,4.6626003E1,3.1562125E2,7.818699E1,7.15545E1,4.911925E1,4.8723057E1,4.456304E0,1.7384806E1,1.1154956E2,2.4485557E0,6.702385E0,1.6158585E2,8.014859E1,6.0223145E0,2.5746077E1,2.0879927E1,3.1377032E2,1.8509302E0,3.0607052E0,7.512628E1,3.0284426E1,4.1270073E1,3.828247E1,1.083678E1,3.4990707E1,1.3732351E1,2.2392664E0,2.217038E0,1.3326089E0,1.1159468E0],"tree_param":{"num_deleted":"0","num_feature":"4","num_nodes":"47","size_leaf_vector":"1"}},{"base_weights":[2.6272107E-3,-1.5492041E-1,8.349113E-1,3.4098425E-3,-5.4645056E-1,5.2700734E-1,1.0264075E-1,-1.04714796E-1,1.4650422E-1,-4.3953523E-1,-9.417379E-1,3.858176E-1,9.2355624E-2,-2.1580873E-1,-1.6785296E-2,5.8830875E-1,1.0383914E-1,-3.587172E-1,-7.6272714E-1,-6.35313E-1,-9.897138E-2,2.635566E-1,6.4179015E-1,-1.8762512E-2,-7.5160116E-2,-2.0173447E-2,2.2690555E-3,-2.0906895E-2,6.493213E-2,1.9565752E-2,3.948611E-3,-4.0443175E-2,2.3844473E-4,1.1542278E-2,-8.036825E-2,-8.727038E-2,-2.1493765E-2,-6.0511388E-2,3.3323165E-2,3.7216563E-2,7.289579E-2],"categories":[],"categories_nodes":[],"categories_segments":[],"categories_sizes":[],"default_left":[0,0,0,0,0,0,0,0,0,0,0,0,0,0,0,0,0,0,0,0,0,0,0,0,0,0,0,0,0,0,0,0,0,0,0,0,0,0,0,0,0],"id":27,"left_children":[1,3,5,7,9,11,-1,13,15,17,19,21,-1,23,25,27,29,31,33,35,-1,37,39,-1,-1,-1,-1,-1,-1,-1,-1,-1,-1,-1,-1,-1,-1,-1,-1,-1,-1],"loss_changes":[1.3513316E2,5.372049E1,9.130783E0,9.577473E0,1.0131668E1,3.280342E0,0E0,3.4408393E0,4.9607463E0,4.9054146E0,1.3931274E-1,1.3836298E0,0E0,2.2101564E0,1.4495262E0,1.2667532E0,1.4350109E0,2.6505013E0,1.487339E0,7.969291E-1,0E0,2.3366694E0,8.926964E-2,0E0,0E0,0E0,0E0,0E0,0E0,0E0,0E0,0E0,0E0,0E0,0E0,0E0,0E0,0E0,0E0,0E0,0E0],"parents":[2147483647,0,0,1,1,2,2,3,3,4,4,5,5,7,7,8,8,9,9,10,10,11,11,13,13,14,14,15,15,16,16,17,17,18,18,19,19,21,21,22,22],"right_children":[2,4,6,8,10,12,-1,14,16,18,20,22,-1,24,26,28,30,32,34,36,-1,38,40,-1,-1,-1,-1,-1,-1,-1,-1,-1,-1,-1,-1,-1,-1,-1,-1,-1,-1],"split_conditions":[9.045511E-1,8.7667334E-1,9.767412E-1,5.174762E-1,9.948303E-1,9.879848E-1,1.0264075E-1,2.3753302E-1,5.0899386E-2,9.679634E-1,9.970402E-1,6.752692E-2,9.2355624E-2,9.735795E-1,3.442429E-1,1.03125796E-1,3.2679126E-1,2.6917315E-1,8.941278E-1,9.7142833E-1,-9.897138E-2,9.3643564E-1,9.106049E-2,-1.8762512E-2,-7.5160116E-2,-2.0173447E-2,2.2690555E-3,-2.0906895E-2,6.493213E-2,1.9565752E-2,3.948611E-3,-4.0443175E-2,2.3844473E-4,1.1542278E-2,-8.036825E-2,-8.727038E-2,-2.1493765E-2,-6.0511388E-2,3.3323165E-2,3.7216563E-2,7.289579E-2],"split_indices":[1,0,3,1,0,1,0,3,2,2,0,0,0,2,2,0,2,3,0,2,0,1,2,0,0,0,0,0,0,0,0,0,0,0,0,0,0,0,0,0,0],"split_type":[0,0,0,0,0,0,0,0,0,0,0,0,0,0,0,0,0,0,0,0,0,0,0,0,0,0,0,0,0,0,0,0,0,0,0,0,0,0,0,0,0],"sum_hessian":[1.0285859E3,8.655543E2,1.6303166E2,6.17027E2,2.485273E2,6.3953613E1,9.907806E1,3.5161142E2,2.654156E2,1.9727997E2,5.124734E1,4.8616737E1,1.5336873E1,1.5470107E2,1.9691037E2,2.2247704E1,2.4316788E2,1.59504E2,3.7775967E1,8.865458E0,4.238188E1,3.4275333E1,1.4341407E1,1.4825288E2,6.4481816E0,3.3913086E1,1.6299728E2,1.4088362E0,2.0838867E1,9.93606E1,1.4380727E2,1.4147379E2,1.8030207E1,1.6022762E0,3.6173687E1,4.9782E0,3.8872578E0,1.9744285E0,3.2300903E1,4.7911363E0,9.55027E0],"tree_param":{"num_deleted":"0","num_feature":"4","num_nodes":"41","size_leaf_vector":"1"}},{"base_weights":[2.526336E-3,-1.4290981E-1,8.14812E-1,-2.2361185E-2,-6.030138E-1,4.9909598E-1,1.0218332E-1,1.0288884E-1,-1.5564269E-1,-4.8972952E-1,-9.819216E-2,3.6017033E-1,9.093058E-2,2.2161755E-1,2.592091E-2,-8.604399E-2,-1.3470118E-1,-6.176906E-1,-2.7914774E-1,2.4207564E-1,6.138461E-1,2.4857825E-2,-5.1043015E-2,8.710776E-5,4.488443E-2,-2.4638651E-2,-5.5309995E-3,-3.43544E-2,-7.847084E-2,-4.3059863E-2,1.67698E-2,-5.4618027E-2,3.0921737E-2,4.6753194E-2,8.427778E-2],"categories":[],"categories_nodes":[],"categories_segments":[],"categories_sizes":[],"default_left":[0,0,0,0,0,0,0,0,0,0,0,0,0,0,0,0,0,0,0,0,0,0,0,0,0,0,0,0,0,0,0,0,0,0,0],"id":28,"left_children":[1,3,5,7,9,11,-1,13,15,17,-1,19,-1,21,23,-1,25,27,29,31,33,-1,-1,-1,-1,-1,-1,-1,-1,-1,-1,-1,-1,-1,-1],"loss_changes":[1.1848821E2,4.71699E1,9.4449005E0,1.128609E1,7.098366E0,3.2214155E0,0E0,3.1802986E0,4.7173986E0,3.5441856E0,0E0,1.2946281E0,0E0,2.8306117E0,2.2525196E0,0E0,2.8167195E0,3.6209335E0,3.7237992E0,1.9960315E0,9.675646E-2,0E0,0E0,0E0,0E0,0E0,0E0,0E0,0E0,0E0,0E0,0E0,0E0,0E0,0E0],"parents":[2147483647,0,0,1,1,2,2,3,3,4,4,5,5,7,7,8,8,9,9,11,11,13,13,14,14,16,16,17,17,18,18,19,19,20,20],"right_children":[2,4,6,8,10,12,-1,14,16,18,-1,20,-1,22,24,-1,26,28,30,32,34,-1,-1,-1,-1,-1,-1,-1,-1,-1,-1,-1,-1,-1,-1],"split_conditions":[9.045511E-1,9.27588E-1,9.767412E-1,5.885888E-1,9.970402E-1,9.879848E-1,1.0218332E-1,3.2679126E-1,2.5760265E-2,7.132887E-2,-9.819216E-2,6.752692E-2,9.093058E-2,5.66831E-1,9.2505187E-1,-8.604399E-2,1.7325997E-1,1.5642375E-2,9.1001207E-1,9.3643564E-1,2.242791E-1,2.4857825E-2,-5.1043015E-2,8.710776E-5,4.488443E-2,-2.4638651E-2,-5.5309995E-3,-3.43544E-2,-7.847084E-2,-4.3059863E-2,1.67698E-2,-5.4618027E-2,3.0921737E-2,4.6753194E-2,8.427778E-2],"split_indices":[1,0,3,0,0,1,0,2,3,3,0,0,0,0,2,0,3,1,2,1,2,0,0,0,0,0,0,0,0,0,0,0,0,0,0],"split_type":[0,0,0,0,0,0,0,0,0,0,0,0,0,0,0,0,0,0,0,0,0,0,0,0,0,0,0,0,0,0,0,0,0,0,0],"sum_hessian":[1.0009982E3,8.496892E2,1.5130902E2,6.741171E2,1.7557211E2,6.1274155E1,9.003487E1,3.476471E2,3.2647E2,1.3692679E2,3.8645313E1,4.717532E1,1.4098837E1,1.3599123E2,2.1165588E2,8.263688E0,3.1820633E2,8.3969215E1,5.295758E1,3.352334E1,1.3651979E1,1.3179767E2,4.193563E0,2.007665E2,1.0889379E1,1.3133891E2,1.8686742E2,3.2946697E1,5.102252E1,3.9579224E1,1.3378357E1,2.0712903E0,3.145205E1,1.0184879E1,3.4671E0],"tree_param":{"num_deleted":"0","num_feature":"4","num_nodes":"35","size_leaf_vector":"1"}},{"base_weights":[2.425886E-3,-1.3171396E-1,7.943198E-1,-2.0479687E-2,-5.7568425E-1,4.7220626E-1,1.0175214E-1,-1.2534569E-1,1.1449199E-1,-4.621486E-1,-9.740867E-2,3.361843E-1,8.9479975E-2,-1.0969218E-1,-8.981432E-2,1.3728446E-1,-2.7406442E-1,-3.0525285E-1,-6.3868374E-1,2.2198775E-1,5.8767617E-1,-2.212827E-3,-1.7994417E-2,8.493734E-2,1.2455801E-2,-8.056559E-2,-9.475458E-3,-1.0426316E-2,-5.076896E-2,-3.9470658E-2,-8.145611E-2,-4.9403135E-2,2.8643755E-2,4.4087008E-2,8.237398E-2],"categories":[],"categories_nodes":[],"categories_segments":[],"categories_sizes":[],"default_left":[0,0,0,0,0,0,0,0,0,0,0,0,0,0,0,0,0,0,0,0,0,0,0,0,0,0,0,0,0,0,0,0,0,0,0],"id":29,"left_children":[1,3,5,7,9,11,-1,13,15,17,-1,19,-1,21,-1,23,25,27,29,31,33,-1,-1,-1,-1,-1,-1,-1,-1,-1,-1,-1,-1,-1,-1],"loss_changes":[1.0386653E2,4.128265E1,9.702782E0,9.493083E0,7.1258774E0,3.1388788E0,0E0,4.4663196E0,2.6354513E0,3.4679813E0,0E0,1.215641E0,0E0,2.2782407E0,0E0,2.411262E0,1.5047452E0,2.8738947E0,2.309454E0,1.7031757E0,1.2304163E-1,0E0,0E0,0E0,0E0,0E0,0E0,0E0,0E0,0E0,0E0,0E0,0E0,0E0,0E0],"parents":[2147483647,0,0,1,1,2,2,3,3,4,4,5,5,7,7,8,8,9,9,11,11,13,13,15,15,16,16,17,17,18,18,19,19,20,20],"right_children":[2,4,6,8,10,12,-1,14,16,18,-1,20,-1,22,-1,24,26,28,30,32,34,-1,-1,-1,-1,-1,-1,-1,-1,-1,-1,-1,-1,-1,-1],"split_conditions":[9.045511E-1,9.27588E-1,9.767412E-1,4.179551E-1,9.970402E-1,9.879848E-1,1.0175214E-1,9.7711074E-1,7.8656E-1,9.50097E-1,-9.740867E-2,6.752692E-2,8.9479975E-2,6.792487E-1,-8.981432E-2,3.9524664E-3,8.036792E-1,9.6529555E-1,1.5642375E-2,9.3643564E-1,2.242791E-1,-2.212827E-3,-1.7994417E-2,8.493734E-2,1.2455801E-2,-8.056559E-2,-9.475458E-3,-1.0426316E-2,-5.076896E-2,-3.9470658E-2,-8.145611E-2,-4.9403135E-2,2.8643755E-2,4.4087008E-2,8.237398E-2],"split_indices":[1,0,3,3,0,1,0,2,0,2,0,0,0,0,0,2,0,0,1,1,2,0,0,0,0,0,0,0,0,0,0,0,0,0,0],"split_type":[0,0,0,0,0,0,0,0,0,0,0,0,0,0,0,0,0,0,0,0,0,0,0,0,0,0,0,0,0,0,0,0,0,0,0],"sum_hessian":[9.7581683E2,8.351786E2,1.4063821E2,6.6868854E2,1.6649005E2,5.8839535E1,8.179868E1,3.7635303E2,2.923355E2,1.3124751E2,3.5242542E1,4.587052E1,1.2969015E1,3.7000037E2,6.3526564E0,2.7674832E2,1.5587198E1,7.093399E1,6.0313522E1,3.2840916E1,1.3029603E1,1.6529158E2,2.047088E2,3.7049139E0,2.730434E2,3.050483E0,1.25367155E1,3.6354446E1,3.457954E1,2.6624382E1,3.368914E1,2.1615329E0,3.0679384E1,9.801635E0,3.227968E0],"tree_param":{"num_deleted":"0","num_feature":"4","num_nodes":"35","size_leaf_vector":"1"}},{"base_weights":[2.2756108E-3,-1.2127714E-1,7.73306E-1,-3.9416738E-2,-6.5962714E-1,4.460711E-1,1.0134243E-1,-1.8678589E-1,6.2462714E-2,-5.1811063E-1,-9.661437E-2,3.1340346E-1,8.799808E-2,-1.0710902E-1,-4.871849E-1,2.4226886E-1,2.3541884E-2,-4.3468025E-1,-7.9303885E-1,2.0325266E-1,5.620315E-1,-1.506403E-2,8.6472265E-2,-3.669158E-2,-7.318624E-2,6.9336304E-3,4.1546322E-2,4.6302173E-3,-3.848487E-2,-6.2032934E-2,-2.243511E-2,-4.4564135E-2,-9.4123125E-2,-4.4772044E-2,2.6489401E-2,4.1507572E-2,8.050169E-2],"categories":[],"categories_nodes":[],"categories_segments":[],"categories_sizes":[],"default_left":[0,0,0,0,0,0,0,0,0,0,0,0,0,0,0,0,0,0,0,0,0,0,0,0,0,0,0,0,0,0,0,0,0,0,0,0,0],"id":30,"left_children":[1,3,5,7,9,11,-1,13,15,17,-1,19,-1,21,23,25,27,29,31,33,35,-1,-1,-1,-1,-1,-1,-1,-1,-1,-1,-1,-1,-1,-1,-1,-1],"loss_changes":[9.099279E1,3.625513E1,9.913628E0,1.0756681E1,4.2101173E0,3.0410633E0,0E0,6.9554358E0,2.9607856E0,1.4089031E0,0E0,1.1367822E0,0E0,9.973982E0,1.5293074E0,2.2271261E0,3.2671216E0,2.2375088E0,4.3443298E-1,1.4516915E0,1.4641428E-1,0E0,0E0,0E0,0E0,0E0,0E0,0E0,0E0,0E0,0E0,0E0,0E0,0E0,0E0,0E0,0E0],"parents":[2147483647,0,0,1,1,2,2,3,3,4,4,5,5,7,7,8,8,9,9,11,11,13,13,14,14,15,15,16,16,17,17,18,18,19,19,20,20],"right_children":[2,4,6,8,10,12,-1,14,16,18,-1,20,-1,22,24,26,28,30,32,34,36,-1,-1,-1,-1,-1,-1,-1,-1,-1,-1,-1,-1,-1,-1,-1,-1],"split_conditions":[9.045511E-1,9.6529555E-1,9.767412E-1,3.2075128E-1,9.970402E-1,9.879848E-1,1.0134243E-1,9.286759E-1,1.6898838E-1,9.7422117E-1,-9.661437E-2,6.752692E-2,8.799808E-2,9.5551056E-1,9.355722E-1,7.4908805E-1,8.0307835E-1,9.843576E-1,9.8582494E-1,9.3643564E-1,2.242791E-1,-1.506403E-2,8.6472265E-2,-3.669158E-2,-7.318624E-2,6.9336304E-3,4.1546322E-2,4.6302173E-3,-3.848487E-2,-6.2032934E-2,-2.243511E-2,-4.4564135E-2,-9.4123125E-2,-4.4772044E-2,2.6489401E-2,4.1507572E-2,8.050169E-2],"split_indices":[1,0,3,1,0,1,0,2,2,2,0,0,0,0,0,1,3,0,0,1,2,0,0,0,0,0,0,0,0,0,0,0,0,0,0,0,0],"split_type":[0,0,0,0,0,0,0,0,0,0,0,0,0,0,0,0,0,0,0,0,0,0,0,0,0,0,0,0,0,0,0,0,0,0,0,0,0],"sum_hessian":[9.531908E2,8.2226996E2,1.3092085E2,7.1467163E2,1.0759829E2,5.6618477E1,7.4302376E1,2.9177875E2,4.228929E2,7.545265E1,3.2145638E1,4.46799E1,1.1938577E1,2.3168414E2,